
\data\
ngram 1=56
ngram 2=280
ngram 3=284

\1-grams:
-1.103804	</s>
-99	<s>	-1.522951
-2.103804	กลับ	-0.1675678
-1.501744	กี่	-0.7555031
-2.103804	ขอ	-0.1000416
-1.626683	ของ	-0.303654
-1.325652	คน	-0.2163424
-2.538727	ครับ	-0.1040816
-1.802774	ความคิดเห็น	-0.135116
-2.103804	ความรู้สึก	-0.135116
-1.802774	จำนวน	-0.3186311
-1.626683	ชอบ	-0.1080844
-2.103804	ดู	-0.1534434
-2.103804	ตีน	-0.1313558
-1.325652	ถูกใจ	-0.2833781
-1.200714	ที่	-0.4130803
-2.362636	นะ	-0.1040816
-1.501744	บ้าง	-0.135116
-1.802774	มี	-0.1969516
-2.103804	มีคน	-0.1534432
-2.538727	ละ	-0.1040816
-1.258706	ล่าสุด	-0.01404233
-2.103804	ศิลปิน	-0.1462048
-2.42414	สอง	-0.07497917
-2.103804	สัตว์	-0.1710284
-2.42414	สาม	-0.07497917
-2.538727	สิ	-0.1040816
-2.76656	สี่	-0.07497916
-1.802774	หนังสือ	-0.119876
-2.368622	หนึ่ง	-0.07497917
-1.283454	หน่อย	-0.1040816
-2.103804	หน้า	-0.135116
-2.538727	หรอ	-0.1040816
-2.652619	ห้า	-0.07497917
-2.103804	อม	-0.1710284
-2.103804	อะ	-0.1388437
-1.258706	อะไร	-0.2732241
-2.538727	อ่ะ	-0.1040816
-2.103804	เช็คอิน	-0.119876
-1.802774	เท่าไหร่	-0.4398738
-1.258706	เพจ	-0.322296
-1.501744	เพื่อน	-0.2542125
-2.103804	เฟซ	-0.1388437
-2.103804	เฟซบุค	-0.1605629
-1.626683	เรา	-0.2920722
-1.802774	เล่น	-0.3436591
-2.103804	เวลา	-0.1534432
-1.626683	แชร์	-0.2525015
-2.103804	แล้ว
-2.103804	แสดง	-0.1640797
-1.325652	โพสต์	-0.5178161
-2.103804	โลก	-0.1710284
-2.103804	ใช้	-0.14254
-1.802774	ไป	-0.1313557
-2.103804	ไว้	-0.1498391
-2.103804	ไหน	-0.1237364

\2-grams:
-1.42286	<s> กลับ	-1.140809
-0.5310091	<s> ขอ	-1.165922
-0.7038409	<s> คน	-1.958234
-2.353	<s> ล่าสุด	-0.5225088
-2.95752	<s> อะไร
-1.750327	<s> เพจ	-0.9226623
-1.750327	<s> เพื่อน	-0.4877385
-1.291556	<s> เรา	-0.88456
-0.4463968	<s> โพสต์	-1.702721
-0.4803991	กลับ ไป	-1.264526
-0.07950795	กี่ คน	-0.987299
-1.325497	ขอ จำนวน	-0.6636875
-1.325497	ขอ ดู	-1.383845
-1.325497	ขอ ศิลปิน	-0.839778
-1.325497	ขอ หนังสือ	-0.8565312
-1.325497	ขอ เพจ	-0.9226612
-1.325497	ขอ เวลา	-0.839778
-1.325497	ขอ โพสต์	-0.7484744
-0.9575202	ของ คน	-1.657204
-0.3529996	ของ เพจ	-1.524722
-1.521792	คน </s>
-2.910958	คน ครับ
-0.917271	คน ถูกใจ	-1.044368
-0.917271	คน ที่	-2.075006
-2.734867	คน นะ
-2.910958	คน ละ
-2.910958	คน สิ
-1.655686	คน หน่อย
-2.910958	คน หรอ
-2.910958	คน อ่ะ
-0.917271	คน แชร์	-0.9357116
-1.521792	คน แล้ว
-0.917271	คน แสดง	-1.441839
-0.7814291	ครับ </s>
-2.170596	ครับ ครับ
-1.994503	ครับ นะ
-2.170596	ครับ ละ
-2.170596	ครับ สิ
-0.9153225	ครับ หน่อย
-2.170596	ครับ หรอ
-2.170596	ครับ อ่ะ
-0.7814288	ความคิดเห็น กี่	-0.7148383
-0.7814288	ความคิดเห็น อะไร	-0.873036
-0.7814288	ความรู้สึก กี่	-0.8397784
-0.7814288	ความรู้สึก อะไร	-0.1370832
-0.3529997	จำนวน ถูกใจ	-0.9767485
-0.9575202	จำนวน แชร์	-0.8385563
-2.346687	ชอบ ครับ
-2.170595	ชอบ นะ
-2.346687	ชอบ ละ
-2.346687	ชอบ สิ
-0.9575202	ชอบ หนังสือ
-1.091414	ชอบ หน่อย
-2.346687	ชอบ หรอ
-2.346687	ชอบ อ่ะ
-0.9575202	ชอบ เพจ	-1.692181
-0.7814288	ดู จำนวน	-0.7596197
-0.7814288	ดู เพื่อน	-1.448238
-2.170595	ตีน ครับ
-1.994503	ตีน นะ
-2.170595	ตีน ละ
-2.170595	ตีน สิ
-0.9153223	ตีน หน่อย
-2.170595	ตีน หรอ
-2.170595	ตีน อ่ะ
-0.7814288	ตีน แชร์	-0.8385563
-0.7789682	ถูกใจ กี่	-0.8397784
-1.383489	ถูกใจ ของ	-0.7596196
-2.772655	ถูกใจ ครับ
-2.596564	ถูกใจ นะ
-2.772655	ถูกใจ ละ
-2.772655	ถูกใจ สิ
-1.517383	ถูกใจ หน่อย
-2.772655	ถูกใจ หรอ
-2.772655	ถูกใจ อ่ะ
-0.5355799	ถูกใจ เท่าไหร่
-1.383489	ถูกใจ เพจ	-0.4455412
-1.253856	ที่ สอง	-1.670775
-1.253856	ที่ สาม	-1.670775
-1.596276	ที่ สี่	-1.670775
-1.198338	ที่ หนึ่ง	-1.670775
-1.482335	ที่ ห้า	-1.670774
-1.480399	ที่ เพจ	-0.9226612
-0.6324899	ที่ เพื่อน	-0.7887683
-1.480399	ที่ เรา	-0.6624661
-0.8758785	ที่ ไหน
-0.7814291	นะ </s>
-2.170595	นะ ครับ
-1.994504	นะ นะ
-2.170595	นะ ละ
-2.170595	นะ สิ
-0.9153225	นะ หน่อย
-2.170595	นะ หรอ
-2.170595	นะ อ่ะ
-0.7814288	บ้าง </s>
-0.7814288	บ้าง อะ
-0.5748484	มี คน	-1.443956
-1.179369	มี ความคิดเห็น	-1.412831
-1.179369	มี ถูกใจ	-0.6885796
-1.179369	มี โพสต์	-0.8646693
-0.4803991	มีคน ถูกใจ	-0.7591318
-0.7814291	ละ </s>
-2.170596	ละ ครับ
-1.994503	ละ นะ
-2.170596	ละ ละ
-2.170596	ละ สิ
-0.9153225	ละ หน่อย
-2.170596	ละ หรอ
-2.170596	ละ อ่ะ
-1.480399	ล่าสุด </s>
-0.8758785	ล่าสุด ของ	-1.23674
-1.480399	ล่าสุด คน	-0.2439441
-2.869565	ล่าสุด ครับ
-1.480399	ล่าสุด ถูกใจ
-1.480399	ล่าสุด ที่	-0.8730376
-2.693474	ล่าสุด นะ
-1.480399	ล่าสุด มี	-1.174593
-1.480399	ล่าสุด มีคน	-0.6636883
-2.869565	ล่าสุด ละ
-2.869565	ล่าสุด สิ
-1.614293	ล่าสุด หน่อย
-2.869565	ล่าสุด หรอ
-2.869565	ล่าสุด อ่ะ
-1.480399	ล่าสุด เรา
-0.4803991	ศิลปิน ที่	-0.8989881
-1.179369	สอง คน	-0.5238577
-2.568535	สอง ครับ
-1.179369	สอง ชอบ	-1.662462
-2.392444	สอง นะ
-1.179369	สอง มี	-1.430299
-2.568535	สอง ละ
-2.568535	สอง สิ
-1.313262	สอง หน่อย
-2.568535	สอง หรอ
-2.568535	สอง อ่ะ
-1.179369	สอง โพสต์	-1.563637
-0.4803991	สัตว์ โลก	-1.538745
-1.179369	สาม คน	-0.5238577
-2.568535	สาม ครับ
-1.179369	สาม ชอบ	-1.662462
-2.392444	สาม นะ
-1.179369	สาม มี	-1.430299
-2.568535	สาม ละ
-2.568535	สาม สิ
-1.313262	สาม หน่อย
-2.568535	สาม หรอ
-2.568535	สาม อ่ะ
-1.179369	สาม โพสต์	-1.563637
-0.7814291	สิ </s>
-2.170596	สิ ครับ
-1.994503	สิ นะ
-2.170596	สิ ละ
-2.170596	สิ สิ
-0.9153225	สิ หน่อย
-2.170596	สิ หรอ
-2.170596	สิ อ่ะ
-1.179369	สี่ คน	-0.5238576
-2.568535	สี่ ครับ
-1.179369	สี่ ชอบ	-1.662462
-2.392444	สี่ นะ
-1.179369	สี่ มี	-1.430301
-2.568535	สี่ ละ
-2.568535	สี่ สิ
-1.313263	สี่ หน่อย
-2.568535	สี่ หรอ
-2.568535	สี่ อ่ะ
-1.179369	สี่ โพสต์	-1.563637
-0.7814288	หนังสือ ที่	-0.8198084
-0.7814288	หนังสือ อะไร
-1.179369	หนึ่ง คน	-0.5238576
-2.568536	หนึ่ง ครับ
-1.179369	หนึ่ง ชอบ	-1.662462
-2.392443	หนึ่ง นะ
-1.179369	หนึ่ง มี	-1.430296
-2.568536	หนึ่ง ละ
-2.568536	หนึ่ง สิ
-1.313262	หนึ่ง หน่อย
-2.568536	หนึ่ง หรอ
-2.568536	หนึ่ง อ่ะ
-1.179369	หนึ่ง โพสต์	-1.563637
-0.7814289	หน่อย </s>
-2.170595	หน่อย ครับ
-1.994504	หน่อย นะ
-2.170595	หน่อย ละ
-2.170595	หน่อย สิ
-0.9153224	หน่อย หน่อย
-2.170595	หน่อย หรอ
-2.170595	หน่อย อ่ะ
-0.7814288	หน้า เพจ	-0.4455413
-0.7814288	หน้า เพื่อน	-0.5160936
-0.7814291	หรอ </s>
-2.170596	หรอ ครับ
-1.994503	หรอ นะ
-2.170596	หรอ ละ
-2.170596	หรอ สิ
-0.9153225	หรอ หน่อย
-2.170596	หรอ หรอ
-2.170596	หรอ อ่ะ
-1.179369	ห้า คน	-0.5238572
-2.568535	ห้า ครับ
-1.179369	ห้า ชอบ	-1.662462
-2.392444	ห้า นะ
-1.179369	ห้า มี	-1.430299
-2.568535	ห้า ละ
-2.568535	ห้า สิ
-1.313262	ห้า หน่อย
-2.568535	ห้า หรอ
-2.568535	ห้า อ่ะ
-1.179369	ห้า โพสต์	-1.563637
-0.4803991	อม ตีน	-0.9067262
-0.4803991	อะ </s>
-0.7116712	อะไร </s>
-1.55958	อะไร ที่
-0.5566292	อะไร บ้าง
-1.55958	อะไร ล่าสุด
-1.55958	อะไร เล่น	-0.2834764
-1.55958	อะไร ไป
-1.55958	อะไร ไว้
-0.7814291	อ่ะ </s>
-2.170596	อ่ะ ครับ
-1.994503	อ่ะ นะ
-2.170596	อ่ะ ละ
-2.170596	อ่ะ สิ
-0.9153225	อ่ะ หน่อย
-2.170596	อ่ะ หรอ
-2.170596	อ่ะ อ่ะ
-0.7814288	เช็คอิน ที่
-0.7814288	เช็คอิน ล่าสุด	-0.9204493
-0.1769084	เท่าไหร่ </s>
-2.110143	เพจ ครับ
-0.7209765	เพจ ที่	-0.8798362
-1.934051	เพจ นะ
-2.110143	เพจ ละ
-0.7209765	เพจ สัตว์	-1.538751
-2.110143	เพจ สิ
-0.85487	เพจ หน่อย
-2.110143	เพจ หรอ
-1.325497	เพจ อะไร	-1.094886
-2.110143	เพจ อ่ะ
-1.325497	เพื่อน ของ	-1.662462
-2.714663	เพื่อน ครับ
-0.7209764	เพื่อน ชอบ	-0.4493914
-2.538572	เพื่อน นะ
-2.714663	เพื่อน ละ
-1.946863	เพื่อน สอง	-0.9845095
-1.946863	เพื่อน สาม	-0.9845095
-2.714663	เพื่อน สิ
-2.289283	เพื่อน สี่	-0.9845095
-1.891345	เพื่อน หนึ่ง	-0.9845095
-1.45939	เพื่อน หน่อย
-2.714663	เพื่อน หรอ
-2.175342	เพื่อน ห้า	-0.9845095
-2.714663	เพื่อน อ่ะ
-0.7209764	เพื่อน ใช้	-0.5007879
-0.4803991	เฟซ </s>
-0.4803991	เฟซบุค บ้าง
-1.25855	เรา ชอบ
-1.25855	เรา ถูกใจ	-0.5187781
-0.6540296	เรา เช็คอิน	-0.5007879
-0.6540296	เรา โพสต์	-1.1657
-0.3529997	เล่น เฟซ
-0.9575202	เล่น เฟซบุค
-0.4803991	เวลา โพสต์	-0.8646693
-1.082459	แชร์ กี่	-0.2377181
-0.4779384	แชร์ ล่าสุด	-0.7592288
-1.082459	แชร์ เท่าไหร่
-0.7814288	แสดง ความคิดเห็น	-1.412831
-0.7814288	แสดง ความรู้สึก	-1.237719
-0.7789682	โพสต์ ที่	-1.692727
-0.5355799	โพสต์ ล่าสุด	-1.044941
-0.5355799	โพสต์ อะไร	-0.4958609
-0.4803991	โลก อม	-1.538745
-0.7814288	ใช้ อะไร	-0.9229187
-0.7814288	ใช้ เล่น
-0.9575202	ไป บ้าง
-0.9575202	ไป ล่าสุด
-0.9575202	ไป หน้า	-0.8397785
-0.4803991	ไว้ ล่าสุด
-0.7814288	ไหน </s>
-0.7814288	ไหน บ้าง

\3-grams:
-0.02153969	<s> กลับ ไป
-0.0142405	ความคิดเห็น กี่ คน
-0.01063633	ความรู้สึก กี่ คน
-0.01063633	ถูกใจ กี่ คน
-0.04420376	แชร์ กี่ คน
-0.8917484	<s> ขอ จำนวน
-0.3321867	<s> ขอ ดู
-1.215442	<s> ขอ ศิลปิน
-1.304031	<s> ขอ หนังสือ
-1.215442	<s> ขอ เพจ
-1.215442	<s> ขอ เวลา
-0.8917484	<s> ขอ โพสต์
-0.04420376	ถูกใจ ของ เพจ
-0.0142405	ล่าสุด ของ เพจ
-0.008488178	เพื่อน ของ คน
-0.004223347	<s> คน ที่
-0.6954817	กี่ คน </s>
-0.1539024	กี่ คน แล้ว
-0.008488178	ของ คน ที่
-0.5925789	มี คน ถูกใจ
-0.9067924	มี คน แชร์
-0.2235725	มี คน แสดง
-0.5468791	ล่าสุด คน แชร์
-0.5468791	ล่าสุด คน แสดง
-1.538105	สอง คน ครับ
-1.362014	สอง คน นะ
-1.538105	สอง คน ละ
-1.538105	สอง คน สิ
-0.2828324	สอง คน หน่อย
-1.538105	สอง คน หรอ
-1.538105	สอง คน อ่ะ
-1.538105	สาม คน ครับ
-1.362014	สาม คน นะ
-1.538105	สาม คน ละ
-1.538105	สาม คน สิ
-0.2828324	สาม คน หน่อย
-1.538105	สาม คน หรอ
-1.538105	สาม คน อ่ะ
-1.538105	สี่ คน ครับ
-1.362014	สี่ คน นะ
-1.538105	สี่ คน ละ
-1.538105	สี่ คน สิ
-0.2828324	สี่ คน หน่อย
-1.538105	สี่ คน หรอ
-1.538105	สี่ คน อ่ะ
-1.538105	หนึ่ง คน ครับ
-1.362014	หนึ่ง คน นะ
-1.538105	หนึ่ง คน ละ
-1.538105	หนึ่ง คน สิ
-0.2828324	หนึ่ง คน หน่อย
-1.538105	หนึ่ง คน หรอ
-1.538105	หนึ่ง คน อ่ะ
-1.538105	ห้า คน ครับ
-1.362014	ห้า คน นะ
-1.538105	ห้า คน ละ
-1.538105	ห้า คน สิ
-0.2828326	ห้า คน หน่อย
-1.538105	ห้า คน หรอ
-1.538105	ห้า คน อ่ะ
-0.0142405	มี ความคิดเห็น อะไร
-0.0142405	แสดง ความคิดเห็น กี่
-0.1075463	แสดง ความรู้สึก กี่
-0.7431736	แสดง ความรู้สึก อะไร
-0.3452337	ขอ จำนวน ถูกใจ
-0.3452337	ขอ จำนวน แชร์
-0.04420376	ดู จำนวน ถูกใจ
-0.008488178	สอง ชอบ เพจ
-0.008488178	สาม ชอบ เพจ
-0.008488178	สี่ ชอบ เพจ
-0.008488178	หนึ่ง ชอบ เพจ
-0.008488178	ห้า ชอบ เพจ
-1.554192	เพื่อน ชอบ ครับ
-1.378101	เพื่อน ชอบ นะ
-1.554192	เพื่อน ชอบ ละ
-1.554192	เพื่อน ชอบ สิ
-0.2989192	เพื่อน ชอบ หน่อย
-1.554192	เพื่อน ชอบ หรอ
-1.554192	เพื่อน ชอบ อ่ะ
-0.8893018	ขอ ดู จำนวน
-0.0740087	ขอ ดู เพื่อน
-1.664928	อม ตีน ครับ
-1.488837	อม ตีน นะ
-1.664928	อม ตีน ละ
-1.664928	อม ตีน สิ
-0.4096553	อม ตีน หน่อย
-1.664928	อม ตีน หรอ
-1.664928	อม ตีน อ่ะ
-0.4121804	อม ตีน แชร์
-0.03398442	คน ถูกใจ กี่
-0.3452337	จำนวน ถูกใจ ของ
-0.3452337	จำนวน ถูกใจ เพจ
-0.06811571	มี ถูกใจ เท่าไหร่
-0.06811571	มีคน ถูกใจ กี่
-1.538105	เรา ถูกใจ ครับ
-1.362014	เรา ถูกใจ นะ
-1.538105	เรา ถูกใจ ละ
-1.538105	เรา ถูกใจ สิ
-0.2828324	เรา ถูกใจ หน่อย
-1.538105	เรา ถูกใจ หรอ
-1.538105	เรา ถูกใจ อ่ะ
-0.624177	คน ที่ สอง
-0.624177	คน ที่ สาม
-0.9665973	คน ที่ สี่
-0.5686591	คน ที่ หนึ่ง
-0.8526566	คน ที่ ห้า
-0.05361104	ล่าสุด ที่ ไหน
-0.04420376	ศิลปิน ที่ เพื่อน
-0.05361104	หนังสือ ที่ เพื่อน
-0.9665997	เพจ ที่ สอง
-0.9665997	เพจ ที่ สาม
-1.30902	เพจ ที่ สี่
-0.9110818	เพจ ที่ หนึ่ง
-1.195079	เพจ ที่ ห้า
-0.3452337	เพจ ที่ เรา
-0.6596446	โพสต์ ที่ สอง
-0.6596446	โพสต์ ที่ สาม
-1.002065	โพสต์ ที่ สี่
-0.6041267	โพสต์ ที่ หนึ่ง
-0.8881242	โพสต์ ที่ ห้า
-1.158147	โพสต์ ที่ เพจ
-0.084167	ล่าสุด มี คน
-0.8810291	ล่าสุด มี ถูกใจ
-0.164396	สอง มี คน
-0.6510625	สอง มี ความคิดเห็น
-1.158147	สอง มี โพสต์
-0.164396	สาม มี คน
-0.6510625	สาม มี ความคิดเห็น
-1.158147	สาม มี โพสต์
-0.164396	สี่ มี คน
-0.6510623	สี่ มี ความคิดเห็น
-1.158147	สี่ มี โพสต์
-0.164396	หนึ่ง มี คน
-0.6510627	หนึ่ง มี ความคิดเห็น
-1.158147	หนึ่ง มี โพสต์
-0.164396	ห้า มี คน
-0.6510625	ห้า มี ความคิดเห็น
-1.158147	ห้า มี โพสต์
-0.06811571	ล่าสุด มีคน ถูกใจ
-0.1489389	<s> ล่าสุด เรา
-0.05361104	เช็คอิน ล่าสุด ที่
-0.1691425	แชร์ ล่าสุด ของ
-2.140165	แชร์ ล่าสุด ครับ
-1.964074	แชร์ ล่าสุด นะ
-2.140165	แชร์ ล่าสุด ละ
-2.140165	แชร์ ล่าสุด สิ
-0.8848925	แชร์ ล่าสุด หน่อย
-2.140165	แชร์ ล่าสุด หรอ
-2.140165	แชร์ ล่าสุด อ่ะ
-0.6235996	โพสต์ ล่าสุด ของ
-1.035882	โพสต์ ล่าสุด คน
-0.2760767	โพสต์ ล่าสุด มี
-1.147297	โพสต์ ล่าสุด มีคน
-0.04420376	ขอ ศิลปิน ที่
-2.585407	ที่ สอง ครับ
-0.7016287	ที่ สอง ชอบ
-2.409316	ที่ สอง นะ
-0.2814121	ที่ สอง มี
-2.585407	ที่ สอง ละ
-2.585407	ที่ สอง สิ
-1.330134	ที่ สอง หน่อย
-2.585407	ที่ สอง หรอ
-2.585407	ที่ สอง อ่ะ
-0.7016287	ที่ สอง โพสต์
-0.04420376	เพื่อน สอง คน
-0.008488059	เพจ สัตว์ โลก
-2.585407	ที่ สาม ครับ
-0.7016287	ที่ สาม ชอบ
-2.409316	ที่ สาม นะ
-0.2814121	ที่ สาม มี
-2.585407	ที่ สาม ละ
-2.585407	ที่ สาม สิ
-1.330134	ที่ สาม หน่อย
-2.585407	ที่ สาม หรอ
-2.585407	ที่ สาม อ่ะ
-0.7016287	ที่ สาม โพสต์
-0.04420376	เพื่อน สาม คน
-2.585407	ที่ สี่ ครับ
-0.7016287	ที่ สี่ ชอบ
-2.409316	ที่ สี่ นะ
-0.2814121	ที่ สี่ มี
-2.585407	ที่ สี่ ละ
-2.585407	ที่ สี่ สิ
-1.330134	ที่ สี่ หน่อย
-2.585407	ที่ สี่ หรอ
-2.585407	ที่ สี่ อ่ะ
-0.7016287	ที่ สี่ โพสต์
-0.04420376	เพื่อน สี่ คน
-0.05361104	ขอ หนังสือ ที่
-2.585407	ที่ หนึ่ง ครับ
-0.7016287	ที่ หนึ่ง ชอบ
-2.409316	ที่ หนึ่ง นะ
-0.2814121	ที่ หนึ่ง มี
-2.585407	ที่ หนึ่ง ละ
-2.585407	ที่ หนึ่ง สิ
-1.330134	ที่ หนึ่ง หน่อย
-2.585407	ที่ หนึ่ง หรอ
-2.585407	ที่ หนึ่ง อ่ะ
-0.7016287	ที่ หนึ่ง โพสต์
-0.04420376	เพื่อน หนึ่ง คน
-0.3452337	ไป หน้า เพจ
-0.3452337	ไป หน้า เพื่อน
-2.585407	ที่ ห้า ครับ
-0.7016287	ที่ ห้า ชอบ
-2.409316	ที่ ห้า นะ
-0.2814121	ที่ ห้า มี
-2.585407	ที่ ห้า ละ
-2.585407	ที่ ห้า สิ
-1.330135	ที่ ห้า หน่อย
-2.585407	ที่ ห้า หรอ
-2.585407	ที่ ห้า อ่ะ
-0.7016287	ที่ ห้า โพสต์
-0.04420376	เพื่อน ห้า คน
-0.008488178	โลก อม ตีน
-0.04420376	ความคิดเห็น อะไร บ้าง
-0.3250303	ความรู้สึก อะไร บ้าง
-0.0259788	เพจ อะไร บ้าง
-1.190332	โพสต์ อะไร </s>
-0.214691	โพสต์ อะไร บ้าง
-0.9587232	โพสต์ อะไร ล่าสุด
-1.190332	โพสต์ อะไร ไป
-0.05361104	ใช้ อะไร เล่น
-0.1327925	เรา เช็คอิน ล่าสุด
-0.04420364	<s> เพจ ที่
-0.04420376	ขอ เพจ ที่
-0.01063633	ของ เพจ สัตว์
-0.008488178	ชอบ เพจ อะไร
-1.538105	ถูกใจ เพจ ครับ
-1.362014	ถูกใจ เพจ นะ
-1.538105	ถูกใจ เพจ ละ
-1.538105	ถูกใจ เพจ สิ
-0.2828324	ถูกใจ เพจ หน่อย
-1.538105	ถูกใจ เพจ หรอ
-1.538105	ถูกใจ เพจ อ่ะ
-0.04420376	ที่ เพจ สัตว์
-1.538105	หน้า เพจ ครับ
-1.362014	หน้า เพจ นะ
-1.538105	หน้า เพจ ละ
-1.538105	หน้า เพจ สิ
-0.2828324	หน้า เพจ หน่อย
-1.538105	หน้า เพจ หรอ
-1.538105	หน้า เพจ อ่ะ
-0.1327924	<s> เพื่อน ใช้
-0.08766937	ดู เพื่อน ของ
-1.443721	ดู เพื่อน สอง
-1.443721	ดู เพื่อน สาม
-1.786141	ดู เพื่อน สี่
-1.388203	ดู เพื่อน หนึ่ง
-1.6722	ดู เพื่อน ห้า
-0.06134045	ที่ เพื่อน ชอบ
-1.538105	หน้า เพื่อน ครับ
-1.362014	หน้า เพื่อน นะ
-1.538105	หน้า เพื่อน ละ
-1.538105	หน้า เพื่อน สิ
-0.2828324	หน้า เพื่อน หน่อย
-1.538105	หน้า เพื่อน หรอ
-1.538105	หน้า เพื่อน อ่ะ
-0.5587611	<s> เรา เช็คอิน
-0.1862791	<s> เรา โพสต์
-0.3944516	ที่ เรา ชอบ
-0.3944516	ที่ เรา ถูกใจ
-0.3152704	อะไร เล่น เฟซ
-0.5468791	อะไร เล่น เฟซบุค
-0.04420376	ขอ เวลา โพสต์
-0.3452337	คน แชร์ กี่
-0.3452337	คน แชร์ เท่าไหร่
-0.04420376	จำนวน แชร์ ล่าสุด
-0.04420376	ตีน แชร์ ล่าสุด
-0.4402092	คน แสดง ความคิดเห็น
-0.2126081	คน แสดง ความรู้สึก
-0.1796078	<s> โพสต์ ที่
-0.4841831	<s> โพสต์ ล่าสุด
-0.3452337	ขอ โพสต์ ที่
-0.3452337	ขอ โพสต์ ล่าสุด
-0.04420376	มี โพสต์ อะไร
-0.008488178	สอง โพสต์ อะไร
-0.008488178	สาม โพสต์ อะไร
-0.008488178	สี่ โพสต์ อะไร
-0.008488178	หนึ่ง โพสต์ อะไร
-0.008488178	ห้า โพสต์ อะไร
-0.02153969	เรา โพสต์ อะไร
-0.04420376	เวลา โพสต์ ล่าสุด
-0.008488178	สัตว์ โลก อม
-0.1327925	เพื่อน ใช้ อะไร
-0.02153969	กลับ ไป หน้า

\end\
