
\data\
ngram 1=35
ngram 2=120
ngram 3=108

\1-grams:
-0.8487323	</s>
-99	<s>	-0.8957907
-1.477121	กี่	-0.789987
-2.079181	ขอ	-0.1528528
-1.60206	ของ	-0.1191042
-1.477121	คน	-0.3377829
-1.60206	ความคิดเห็น	-0.340953
-1.778151	จำนวน	-0.488957
-1.778151	ชอบ	-0.2186384
-2.079181	ดู	-0.1803739
-1.477121	ถูกใจ	-0.1446583
-1.380211	ที	-0.8352762
-1.234083	ที่	-0.5908304
-1.778151	นะ	-0.4373363
-1.778151	บ้าง	-0.4373363
-1.60206	มี	-0.2907864
-2.079181	ละ	-0.1363063
-1.60206	ล่าสุด	0.03768186
-1.60206	สิ	-0.6134275
-1.778151	หนังสือ	-0.1487749
-1.380211	หน่อย	-0.8352762
-1.778151	หรอ	-0.4373363
-1.380211	อะ	-0.8352762
-1.234083	อะไร	-0.2709736
-1.778151	เช็คอิน	-0.2040955
-1.380211	เพจ	0.02527262
-1.477121	เพื่อน	-0.2160143
-2.079181	เฟซ	-0.09659688
-1.477121	เรา	-0.1310035
-1.778151	เล่น	-0.500046
-1.778151	แชร์	-0.3329841
-1.176091	โพสต์	-0.7669216
-2.079181	ใช้	-0.168792
-2.079181	ไป	-0.195351
-1.778151	ไหน	-0.2074492

\2-grams:
-0.5732269	<s> ขอ	-0.8373615
-1.527814	<s> คน	-0.1976804
-2.331519	<s> ความคิดเห็น
-1.527814	<s> ที่	-0.7208765
-1.375089	<s> มี	-0.7800296
-1.527814	<s> อะไร	-0.8634393
-0.9312169	<s> เพจ	-1.046605
-0.8871906	<s> เพื่อน	-0.6079784
-0.8871906	<s> เรา	-0.8160388
-0.8472195	<s> โพสต์	-1.237961
-0.07405893	กี่ คน	-1.028767
-1.127399	ขอ ความคิดเห็น	-0.4318871
-1.127399	ขอ จำนวน	-0.1939088
-1.127399	ขอ ดู	-0.7181087
-1.127399	ขอ หนังสือ	-0.6079783
-1.127399	ขอ เพจ	-1.217884
-1.030489	ของ เพจ	-0.3068249
-1.030489	ของ เพื่อน
-1.030489	ของ เรา	-0.1523512
-1.030489	ของ โพสต์	-0.635901
-1.382672	คน </s>
-0.5789665	คน ถูกใจ	-0.8420616
-1.382672	คน ละ	-1.039007
-1.382672	คน อะ
-0.5789665	คน แชร์	-0.4157576
-0.3394882	ความคิดเห็น ของ	-0.8311821
-0.9055506	ความคิดเห็น อะไร	-0.2608823
-0.163397	จำนวน ถูกใจ	-0.849907
-0.8166095	ชอบ </s>
-0.8166095	ชอบ ที	0.2040312
-1.382672	ชอบ สิ	-0.01781756
-1.382672	ชอบ หนังสือ	-0.6079783
-1.382672	ชอบ หน่อย
-0.8166095	ชอบ เพจ	-1.071756
-0.7294593	ดู จำนวน
-0.7294593	ดู เพื่อน	-0.7415898
-0.7074651	ถูกใจ กี่	-0.5460913
-1.273527	ถูกใจ ของ	-0.8311821
-1.273527	ถูกใจ ที
-1.273527	ถูกใจ หน่อย
-1.273527	ถูกใจ เพจ	-0.6738158
-1.273527	ถูกใจ โพสต์	-0.635901
-0.05820231	ที </s>
-0.527814	ที่ เพื่อน	-0.5608172
-0.765457	ที่ เรา	-0.5721512
-0.527814	ที่ ไหน	-0.3401509
-0.163397	นะ </s>
-0.163397	บ้าง </s>
-0.4028752	มี คน	-0.8492897
-1.206581	มี ความคิดเห็น	-0.8160388
-1.206581	มี อะไร
-1.206581	มี โพสต์	-0.4598098
-0.4284293	ละ </s>
-1.382672	ล่าสุด </s>
-1.382672	ล่าสุด กี่	-0.2908188
-1.382672	ล่าสุด คน
-1.382672	ล่าสุด ถูกใจ	-0.6027771
-1.382672	ล่าสุด ที
-1.382672	ล่าสุด ที่
-1.382672	ล่าสุด มี	-0.3235092
-1.382672	ล่าสุด หน่อย
-1.382672	ล่าสุด แชร์	-0.4318871
-0.1018452	สิ </s>
-0.7294593	หนังสือ ที่	-0.5447852
-0.7294593	หนังสือ อะไร
-0.05820231	หน่อย </s>
-0.163397	หรอ </s>
-0.05820231	อะ </s>
-0.828844	อะไร </s>
-1.632549	อะไร ที่	-0.7208765
-1.066487	อะไร นะ	-0.3700001
-0.828844	อะไร บ้าง	-0.6710301
-1.632549	อะไร ล่าสุด
-1.632549	อะไร หรอ	-0.1939088
-0.828844	อะไร อะ	-0.1939088
-1.632549	อะไร เล่น	-0.3700001
-1.632549	อะไร ไป
-0.7074651	เช็คอิน </s>
-0.7074651	เช็คอิน ที่	-0.7208765
-1.273527	เช็คอิน ล่าสุด
-1.273527	เช็คอิน อะ
-1.273527	เช็คอิน ไหน
-1.273527	เพจ </s>
-1.273527	เพจ กี่	0.1071212
-1.273527	เพจ ที่	-1.159892
-1.273527	เพจ มี	-0.6749251
-1.273527	เพจ สิ
-1.273527	เพจ อะไร	-0.3929072
-1.273527	เพจ โพสต์	-0.635901
-1.469822	เพื่อน ของ	-0.8510163
-0.9037597	เพื่อน ชอบ	-0.2369475
-1.469822	เพื่อน ที
-1.469822	เพื่อน หน่อย
-0.9037597	เพื่อน เช็คอิน
-1.469822	เพื่อน เรา
-1.469822	เพื่อน โพสต์	-0.4598098
-0.9037597	เพื่อน ใช้	-0.67103
-1.030489	เฟซ </s>
-1.030489	เฟซ นะ
-1.030489	เฟซ หรอ	-0.1939088
-1.030489	เฟซ อะ	0.2040312
-1.469822	เรา </s>
-0.9037597	เรา ชอบ	-0.2293646
-1.469822	เรา ถูกใจ
-1.469822	เรา ที
-1.469822	เรา สิ	-0.01781756
-0.9037597	เรา หน่อย	0.2040312
-0.9037597	เรา เช็คอิน	-0.1268063
-1.469822	เรา โพสต์	-0.8577497
-0.163397	เล่น เฟซ	-0.2409875
-0.3394882	แชร์ กี่	-0.2908188
-0.9055506	แชร์ โพสต์	-0.4598098
-0.3750889	โพสต์ ล่าสุด	-0.5974665
-0.3750889	โพสต์ อะไร	-0.1998963
-0.7294593	ใช้ อะไร	-0.8634393
-0.7294593	ใช้ เล่น	-0.3700001
-0.4284293	ไป บ้าง
-0.464427	ไหน </s>
-1.030489	ไหน ที่	-0.1777943
-1.030489	ไหน อะ

\3-grams:
-0.01980839	ถูกใจ กี่ คน
-0.03633246	ล่าสุด กี่ คน
-0.09725593	เพจ กี่ คน
-0.03633246	แชร์ กี่ คน
-1.138649	<s> ขอ ความคิดเห็น
-1.138649	<s> ขอ จำนวน
-0.4079886	<s> ขอ ดู
-1.138649	<s> ขอ หนังสือ
-0.5229626	<s> ขอ เพจ
-0.06236074	ความคิดเห็น ของ โพสต์
-0.06236074	ถูกใจ ของ เพจ
-0.641324	เพื่อน ของ เพื่อน
-0.1824605	เพื่อน ของ เรา
-0.2733472	<s> คน ถูกใจ
-0.2218927	กี่ คน </s>
-0.5027592	กี่ คน ละ
-0.1447471	มี คน ถูกใจ
-0.6644207	มี คน แชร์
-0.09725593	ขอ ความคิดเห็น ของ
-0.06236074	มี ความคิดเห็น อะไร
-0.09725593	ขอ จำนวน ถูกใจ
-0.5743772	เพื่อน ชอบ หนังสือ
-0.5743772	เพื่อน ชอบ เพจ
-0.6993159	เรา ชอบ สิ
-0.4883295	เรา ชอบ เพจ
-0.07350172	ขอ ดู เพื่อน
-0.2597211	คน ถูกใจ กี่
-0.8754072	คน ถูกใจ เพจ
-0.6644207	คน ถูกใจ โพสต์
-0.06236074	จำนวน ถูกใจ ของ
-0.09725593	ล่าสุด ถูกใจ กี่
-0.09725593	ชอบ ที </s>
-0.06236074	<s> ที่ ไหน
-0.09725593	หนังสือ ที่ เพื่อน
-0.06236074	อะไร ที่ เพื่อน
-0.06236074	เช็คอิน ที่ ไหน
-0.02563794	เพจ ที่ เรา
-0.2733472	ไหน ที่ เพื่อน
-0.06236074	อะไร นะ </s>
-0.03006203	อะไร บ้าง </s>
-0.0459112	<s> มี คน
-0.4303375	ล่าสุด มี คน
-0.4303375	ล่าสุด มี ความคิดเห็น
-0.1824605	เพจ มี คน
-0.641324	เพจ มี โพสต์
-0.02563794	คน ละ </s>
-0.6383924	โพสต์ ล่าสุด กี่
-1.097256	โพสต์ ล่าสุด คน
-1.097256	โพสต์ ล่าสุด ถูกใจ
-0.4815699	โพสต์ ล่าสุด มี
-1.097256	โพสต์ ล่าสุด แชร์
-0.09725593	ชอบ สิ </s>
-0.09725593	เรา สิ </s>
-0.09725593	ขอ หนังสือ ที่
-0.09725593	ชอบ หนังสือ อะไร
-0.09725593	เรา หน่อย </s>
-0.09725593	อะไร หรอ </s>
-0.09725593	เฟซ หรอ </s>
-0.03633246	อะไร อะ </s>
-0.09725593	เฟซ อะ </s>
-0.06236074	<s> อะไร ที่
-0.2733472	ความคิดเห็น อะไร บ้าง
-0.4951959	เพจ อะไร นะ
-0.4951959	เพจ อะไร หรอ
-0.6644207	โพสต์ อะไร </s>
-0.6644207	โพสต์ อะไร บ้าง
-0.6644207	โพสต์ อะไร อะ
-0.06236074	ใช้ อะไร เล่น
-0.3982859	เรา เช็คอิน ที่
-0.1805399	<s> เพจ มี
-0.5852395	<s> เพจ โพสต์
-0.02563794	ขอ เพจ ที่
-0.2733472	ของ เพจ </s>
-0.03633246	ชอบ เพจ อะไร
-0.09725593	ถูกใจ เพจ กี่
-0.4852439	<s> เพื่อน ชอบ
-0.8376186	<s> เพื่อน เช็คอิน
-0.8376186	<s> เพื่อน โพสต์
-0.6266322	<s> เพื่อน ใช้
-0.08362988	ดู เพื่อน ของ
-0.641324	ที่ เพื่อน ชอบ
-0.641324	ที่ เพื่อน เช็คอิน
-0.4303375	ที่ เพื่อน ใช้
-0.5743772	เล่น เฟซ หรอ
-0.5743772	เล่น เฟซ อะ
-0.6266322	<s> เรา ชอบ
-0.6266322	<s> เรา เช็คอิน
-0.3787552	<s> เรา โพสต์
-0.4951959	ของ เรา สิ
-0.2404524	ที่ เรา ชอบ
-0.6993159	ที่ เรา ถูกใจ
-0.06236074	อะไร เล่น เฟซ
-0.06236074	ใช้ เล่น เฟซ
-0.2842095	คน แชร์ กี่
-0.4951959	คน แชร์ โพสต์
-0.09725593	ล่าสุด แชร์ กี่
-0.01477095	<s> โพสต์ ล่าสุด
-0.06236074	ของ โพสต์ ล่าสุด
-0.06236074	ถูกใจ โพสต์ ล่าสุด
-0.09725593	มี โพสต์ อะไร
-0.06236074	เพจ โพสต์ อะไร
-0.09725593	เพื่อน โพสต์ อะไร
-0.03633246	เรา โพสต์ อะไร
-0.09725593	แชร์ โพสต์ ล่าสุด
-0.3633907	เพื่อน ใช้ อะไร
-0.3633907	เพื่อน ใช้ เล่น
-0.4303375	ที่ ไหน </s>
-0.4303375	ที่ ไหน ที่

\end\
