
\data\
ngram 1=55
ngram 2=264
ngram 3=317

\1-grams:
-0.9197315	</s>
-99	<s>	-1.549953
-2.123852	กลับ	-0.1853051
-1.521792	กี่	-0.7738973
-2.123852	ขอ	-0.1211123
-1.64673	ของ	-0.3233063
-1.3457	คน	-0.2515072
-1.822822	ความคิดเห็น	-0.1543937
-2.123852	ความรู้สึก	-0.1543937
-1.822822	จำนวน	-0.3375468
-1.64673	ชอบ	-0.06366897
-2.123852	ดู	-0.1718376
-2.123852	ตีน	-0.08922314
-1.3457	ถูกใจ	-0.2079128
-1.220762	ที่	-0.4335216
-2.364585	นะ	-0.4993971
-1.521792	บ้าง	-0.3085831
-1.822822	มี	-0.2180223
-2.123852	มีคน	-0.1718375
-2.540677	ละ	-0.4993971
-1.278754	ล่าสุด	-0.09059973
-2.123852	ศิลปิน	-0.1649439
-2.444188	สอง	-0.02707523
-2.123852	สัตว์	-0.1886078
-2.444188	สาม	-0.02707523
-2.540677	สิ	-0.4993971
-2.786608	สี่	-0.02707523
-1.822822	หนังสือ	-0.1399159
-2.38867	หนึ่ง	-0.02707523
-1.285404	หน่อย	-0.4993975
-2.123852	หน้า	-0.1543937
-2.540677	หรอ	-0.4993971
-2.672668	ห้า	-0.02707537
-2.123852	อม	-0.1886078
-2.123852	อะ	-0.1362197
-1.278754	อะไร	-0.3375469
-2.540677	อ่ะ	-0.4993971
-2.123852	เช็คอิน	-0.1399159
-1.822822	เท่าไหร่	-0.4372497
-1.278754	เพจ	-0.2870942
-1.521792	เพื่อน	-0.1886078
-2.123852	เฟซ	-0.1362197
-2.123852	เฟซบุค	-0.1786236
-1.64673	เรา	-0.312311
-1.822822	เล่น	-0.3613965
-2.123852	เวลา	-0.1718375
-1.64673	แชร์	-0.2721538
-2.123852	แล้ว
-2.123852	แสดง	-0.1819772
-1.3457	โพสต์	-0.5393258
-2.123852	โลก	-0.1886078
-2.123852	ใช้	-0.1614556
-1.822822	ไป	-0.1508193
-2.123852	ไว้	-0.1684044
-2.123852	ไหน	-0.1211123

\2-grams:
-1.421852	<s> กลับ	-1.193857
-0.5308796	<s> ขอ	-1.218968
-0.7036483	<s> คน	-2.032592
-2.344496	<s> ล่าสุด	-0.594471
-2.924279	<s> อะไร
-1.748188	<s> เพจ	-1.013728
-1.748188	<s> เพื่อน	-0.5231615
-1.290811	<s> เรา	-0.94813
-0.4462903	<s> โพสต์	-1.767887
-0.4471581	กลับ ไป	-1.330695
-0.07609022	กี่ คน	-1.318798
-1.292256	ขอ จำนวน	-0.7167372
-1.292256	ขอ ดู	-1.436898
-1.292256	ขอ ศิลปิน	-0.8928276
-1.292256	ขอ หนังสือ	-0.9201016
-1.292256	ขอ เพจ	-1.013726
-1.292256	ขอ เวลา	-0.8928276
-1.292256	ขอ โพสต์	-0.8136472
-0.9242792	ของ คน	-1.731567
-0.3444958	ของ เพจ	-1.615782
-0.9465556	คน </s>
-0.9465556	คน ถูกใจ	-1.076978
-0.9465556	คน ที่	-2.143984
-2.721316	คน นะ
-2.897407	คน ละ
-2.897407	คน สิ
-1.642135	คน หน่อย
-2.897407	คน หรอ
-2.897407	คน อ่ะ
-0.9465556	คน แชร์	-0.9992838
-1.526339	คน แล้ว
-0.9465556	คน แสดง	-1.494892
-0.7481881	ความคิดเห็น กี่	-0.7678928
-0.7481881	ความคิดเห็น อะไร	-0.6120017
-0.748188	ความรู้สึก กี่	-0.8928238
-0.748188	ความรู้สึก อะไร	-0.2598187
-0.3444957	จำนวน ถูกใจ	-1.048801
-0.9242793	จำนวน แชร์	-0.9047269
-1.049218	ชอบ </s>
-2.244195	ชอบ นะ	-0.1242221
-2.420286	ชอบ ละ	-0.1242221
-2.420286	ชอบ สิ	-0.1242221
-1.049218	ชอบ หนังสือ
-1.165014	ชอบ หน่อย	-0.1242226
-2.420286	ชอบ หรอ	-0.1242221
-2.420286	ชอบ อ่ะ	-0.1242221
-1.049218	ชอบ เพจ	-1.766105
-0.748188	ดู จำนวน	-0.8231916
-0.748188	ดู เพื่อน	-1.521212
-0.9242792	ตีน </s>
-2.119256	ตีน นะ
-2.295347	ตีน ละ
-2.295347	ตีน สิ
-1.040075	ตีน หน่อย
-2.295347	ตีน หรอ
-2.295347	ตีน อ่ะ
-0.9242792	ตีน แชร์	-0.9047269
-1.401401	ถูกใจ </s>
-0.8216169	ถูกใจ กี่	-0.8928238
-1.401401	ถูกใจ ของ	-0.8231917
-2.596378	ถูกใจ นะ
-2.772469	ถูกใจ ละ
-2.772469	ถูกใจ สิ
-1.517197	ถูกใจ หน่อย
-2.772469	ถูกใจ หรอ
-2.772469	ถูกใจ อ่ะ
-0.5818566	ถูกใจ เท่าไหร่	-0.1146769
-1.401401	ถูกใจ เพจ	-0.2318793
-1.24898	ที่ สอง	-1.638848
-1.24898	ที่ สาม	-1.638848
-1.5914	ที่ สี่	-1.63885
-1.193462	ที่ หนึ่ง	-1.63885
-1.47746	ที่ ห้า	-1.63885
-1.447158	ที่ เพจ	-1.013726
-0.627614	ที่ เพื่อน	-0.8241916
-1.447158	ที่ เรา	-0.7286358
-0.8673744	ที่ ไหน	-0.217436
-0.1730003	นะ </s>
-2.341105	นะ นะ
-2.517196	นะ ละ
-2.517196	นะ สิ
-1.261924	นะ หน่อย
-2.517196	นะ หรอ
-2.517196	นะ อ่ะ
-0.3444957	บ้าง </s>
-0.9242793	บ้าง อะ
-0.5663444	มี คน	-1.53027
-1.146128	มี ความคิดเห็น	-1.476408
-1.146128	มี ถูกใจ	-0.7767347
-1.146128	มี โพสต์	-0.9331222
-0.4471581	มีคน ถูกใจ	-0.8376355
-0.1730003	ละ </s>
-2.341105	ละ นะ
-2.517196	ละ ละ
-2.517196	ละ สิ
-1.261924	ละ หน่อย
-2.517196	ละ หรอ
-2.517196	ละ อ่ะ
-0.7067952	ล่าสุด </s>
-0.9465556	ล่าสุด ของ	-1.300317
-1.526339	ล่าสุด คน	-0.2893314
-1.526339	ล่าสุด ถูกใจ
-1.526339	ล่าสุด ที่	-0.9421891
-2.721316	ล่าสุด นะ
-1.526339	ล่าสุด มี	-1.238167
-1.526339	ล่าสุด มีคน	-0.7167368
-2.897407	ล่าสุด ละ
-2.897407	ล่าสุด สิ
-1.642135	ล่าสุด หน่อย
-2.897407	ล่าสุด หรอ
-2.897407	ล่าสุด อ่ะ
-1.526339	ล่าสุด เรา
-0.4471581	ศิลปิน ที่	-0.9679688
-1.225309	สอง </s>
-1.225309	สอง คน	-0.2897443
-1.225309	สอง ชอบ	-1.743073
-2.420285	สอง นะ	-0.522164
-1.225309	สอง มี	-1.489224
-2.596377	สอง ละ	-0.522164
-2.596377	สอง สิ	-0.522164
-1.341105	สอง หน่อย	-0.5221617
-2.596377	สอง หรอ	-0.522164
-2.596377	สอง อ่ะ	-0.522164
-1.225309	สอง โพสต์	-1.632099
-0.4471581	สัตว์ โลก	-1.591805
-1.225309	สาม </s>
-1.225309	สาม คน	-0.2897443
-1.225309	สาม ชอบ	-1.743073
-2.420285	สาม นะ	-0.522164
-1.225309	สาม มี	-1.489224
-2.596377	สาม ละ	-0.522164
-2.596377	สาม สิ	-0.522164
-1.341105	สาม หน่อย	-0.5221617
-2.596377	สาม หรอ	-0.522164
-2.596377	สาม อ่ะ	-0.522164
-1.225309	สาม โพสต์	-1.632099
-0.1730003	สิ </s>
-2.341105	สิ นะ
-2.517196	สิ ละ
-2.517196	สิ สิ
-1.261924	สิ หน่อย
-2.517196	สิ หรอ
-2.517196	สิ อ่ะ
-1.225309	สี่ </s>
-1.225309	สี่ คน	-0.2897443
-1.225309	สี่ ชอบ	-1.743073
-2.420285	สี่ นะ	-0.522164
-1.225309	สี่ มี	-1.489216
-2.596377	สี่ ละ	-0.522164
-2.596377	สี่ สิ	-0.522164
-1.341105	สี่ หน่อย	-0.5221638
-2.596377	สี่ หรอ	-0.522164
-2.596377	สี่ อ่ะ	-0.522164
-1.225309	สี่ โพสต์	-1.632099
-0.7481881	หนังสือ ที่	-0.8887875
-0.7481881	หนังสือ อะไร
-1.225309	หนึ่ง </s>
-1.225309	หนึ่ง คน	-0.2897443
-1.225309	หนึ่ง ชอบ	-1.743073
-2.420286	หนึ่ง นะ	-0.522164
-1.225309	หนึ่ง มี	-1.489224
-2.596377	หนึ่ง ละ	-0.522164
-2.596377	หนึ่ง สิ	-0.522164
-1.341105	หนึ่ง หน่อย	-0.5221617
-2.596377	หนึ่ง หรอ	-0.522164
-2.596377	หนึ่ง อ่ะ	-0.522164
-1.225309	หนึ่ง โพสต์	-1.632099
-0.1730002	หน่อย </s>
-2.341105	หน่อย นะ
-2.517196	หน่อย ละ
-2.517196	หน่อย สิ
-1.261924	หน่อย หน่อย
-2.517196	หน่อย หรอ
-2.517196	หน่อย อ่ะ
-0.748188	หน้า เพจ	-0.2318793
-0.748188	หน้า เพื่อน	-0.2830318
-0.1730003	หรอ </s>
-2.341105	หรอ นะ
-2.517196	หรอ ละ
-2.517196	หรอ สิ
-1.261924	หรอ หน่อย
-2.517196	หรอ หรอ
-2.517196	หรอ อ่ะ
-1.225309	ห้า </s>
-1.225309	ห้า คน	-0.2897443
-1.225309	ห้า ชอบ	-1.743073
-2.420286	ห้า นะ	-0.522164
-1.225309	ห้า มี	-1.489216
-2.596377	ห้า ละ	-0.522164
-2.596377	ห้า สิ	-0.522164
-1.341105	ห้า หน่อย	-0.5221638
-2.596377	ห้า หรอ	-0.522164
-2.596377	ห้า อ่ะ	-0.522164
-1.225309	ห้า โพสต์	-1.632099
-0.4471581	อม ตีน	-0.892828
-0.4471581	อะ </s>
-0.5069262	อะไร </s>
-1.593286	อะไร ที่
-0.6201582	อะไร บ้าง
-1.593286	อะไร ล่าสุด
-1.593286	อะไร เล่น	-0.3365253
-1.593286	อะไร ไป
-1.593286	อะไร ไว้
-0.1730003	อ่ะ </s>
-2.341105	อ่ะ นะ
-2.517196	อ่ะ ละ
-2.517196	อ่ะ สิ
-1.261924	อ่ะ หน่อย
-2.517196	อ่ะ หรอ
-2.517196	อ่ะ อ่ะ
-0.748188	เช็คอิน ที่
-0.748188	เช็คอิน ล่าสุด	-0.9924101
-0.1684045	เท่าไหร่ </s>
-0.8216169	เพจ </s>
-0.8216169	เพจ ที่	-0.9471834
-2.016593	เพจ นะ
-2.192685	เพจ ละ
-0.8216169	เพจ สัตว์	-1.591805
-2.192685	เพจ สิ
-0.9374125	เพจ หน่อย
-2.192685	เพจ หรอ
-1.401401	เพจ อะไร	-0.8338497
-2.192685	เพจ อ่ะ
-1.350248	เพื่อน </s>
-1.350248	เพื่อน ของ	-1.728643
-0.7704643	เพื่อน ชอบ	-0.4613951
-2.545225	เพื่อน นะ
-2.721316	เพื่อน ละ
-1.971614	เพื่อน สอง	-1.058061
-1.971614	เพื่อน สาม	-1.058061
-2.721316	เพื่อน สิ
-2.314034	เพื่อน สี่	-1.058061
-1.916096	เพื่อน หนึ่ง	-1.058061
-1.466044	เพื่อน หน่อย
-2.721316	เพื่อน หรอ
-2.200094	เพื่อน ห้า	-1.058061
-2.721316	เพื่อน อ่ะ
-0.7704643	เพื่อน ใช้	-0.5184661
-0.4471581	เฟซ </s>
-0.4471581	เฟซบุค บ้าง
-1.225309	เรา ชอบ
-1.225309	เรา ถูกใจ	-0.2852809
-0.6455257	เรา เช็คอิน	-0.5184661
-0.6455257	เรา โพสต์	-1.234152
-0.3444957	เล่น เฟซ	-0.4157072
-0.9242793	เล่น เฟซบุค
-0.4471581	เวลา โพสต์	-0.9331222
-1.049218	แชร์ กี่	-0.2907678
-0.4694345	แชร์ ล่าสุด	-0.5890231
-1.049218	แชร์ เท่าไหร่	-0.1146773
-0.748188	แสดง ความคิดเห็น	-1.476408
-0.748188	แสดง ความรู้สึก	-1.290771
-0.7704644	โพสต์ ที่	-1.760076
-0.530704	โพสต์ ล่าสุด	-1.109595
-0.530704	โพสต์ อะไร	-0.5735564
-0.4471581	โลก อม	-1.591805
-0.748188	ใช้ อะไร	-0.9943091
-0.748188	ใช้ เล่น
-0.9242793	ไป บ้าง
-0.9242793	ไป ล่าสุด
-0.9242793	ไป หน้า	-0.8928284
-0.4471581	ไว้ ล่าสุด
-0.748188	ไหน </s>
-0.748188	ไหน บ้าง

\3-grams:
-0.0182445	<s> กลับ ไป
-0.01207733	ความคิดเห็น กี่ คน
-0.009026527	ความรู้สึก กี่ คน
-0.009026527	ถูกใจ กี่ คน
-0.03728914	แชร์ กี่ คน
-0.8884531	<s> ขอ จำนวน
-0.3312757	<s> ขอ ดู
-1.208528	<s> ขอ ศิลปิน
-1.295567	<s> ขอ หนังสือ
-1.208528	<s> ขอ เพจ
-1.208528	<s> ขอ เวลา
-0.8884531	<s> ขอ โพสต์
-0.03728914	ถูกใจ ของ เพจ
-0.01207733	ล่าสุด ของ เพจ
-0.007205963	เพื่อน ของ คน
-0.00358808	<s> คน ที่
-0.2186537	กี่ คน </s>
-0.450469	กี่ คน แล้ว
-0.007205963	ของ คน ที่
-0.5906379	มี คน ถูกใจ
-0.9028006	มี คน แชร์
-0.2227418	มี คน แสดง
-0.5210502	ล่าสุด คน แชร์
-0.5210502	ล่าสุด คน แสดง
-1.494178	สอง คน นะ
-1.670269	สอง คน ละ
-1.670269	สอง คน สิ
-0.4149971	สอง คน หน่อย
-1.670269	สอง คน หรอ
-1.670269	สอง คน อ่ะ
-1.494178	สาม คน นะ
-1.670269	สาม คน ละ
-1.670269	สาม คน สิ
-0.4149971	สาม คน หน่อย
-1.670269	สาม คน หรอ
-1.670269	สาม คน อ่ะ
-1.494178	สี่ คน นะ
-1.670269	สี่ คน ละ
-1.670269	สี่ คน สิ
-0.4149971	สี่ คน หน่อย
-1.670269	สี่ คน หรอ
-1.670269	สี่ คน อ่ะ
-1.494178	หนึ่ง คน นะ
-1.670269	หนึ่ง คน ละ
-1.670269	หนึ่ง คน สิ
-0.4149971	หนึ่ง คน หน่อย
-1.670269	หนึ่ง คน หรอ
-1.670269	หนึ่ง คน อ่ะ
-1.494178	ห้า คน นะ
-1.670269	ห้า คน ละ
-1.670269	ห้า คน สิ
-0.4149971	ห้า คน หน่อย
-1.670269	ห้า คน หรอ
-1.670269	ห้า คน อ่ะ
-0.01207733	มี ความคิดเห็น อะไร
-0.01207733	แสดง ความคิดเห็น กี่
-0.1059363	แสดง ความรู้สึก กี่
-0.7362592	แสดง ความรู้สึก อะไร
-0.3383191	ขอ จำนวน ถูกใจ
-0.3383191	ขอ จำนวน แชร์
-0.03728914	ดู จำนวน ถูกใจ
-0.007205963	สอง ชอบ เพจ
-0.007205963	สาม ชอบ เพจ
-0.007205963	สี่ ชอบ เพจ
-0.007205963	หนึ่ง ชอบ เพจ
-0.007205963	ห้า ชอบ เพจ
-0.6671782	เพื่อน ชอบ </s>
-1.495222	เพื่อน ชอบ นะ
-1.671313	เพื่อน ชอบ ละ
-1.671313	เพื่อน ชอบ สิ
-0.4160409	เพื่อน ชอบ หน่อย
-1.671313	เพื่อน ชอบ หรอ
-1.671313	เพื่อน ชอบ อ่ะ
-0.8823872	ขอ ดู จำนวน
-0.07294345	ขอ ดู เพื่อน
-0.7104197	อม ตีน </s>
-1.574821	อม ตีน นะ
-1.750913	อม ตีน ละ
-1.750913	อม ตีน สิ
-0.4956405	อม ตีน หน่อย
-1.750913	อม ตีน หรอ
-1.750913	อม ตีน อ่ะ
-0.5144103	อม ตีน แชร์
-0.0320437	คน ถูกใจ กี่
-0.3383191	จำนวน ถูกใจ ของ
-0.3383191	จำนวน ถูกใจ เพจ
-0.05720735	มี ถูกใจ เท่าไหร่
-0.05720735	มีคน ถูกใจ กี่
-1.494178	เรา ถูกใจ นะ
-1.670269	เรา ถูกใจ ละ
-1.670269	เรา ถูกใจ สิ
-0.4149971	เรา ถูกใจ หน่อย
-1.670269	เรา ถูกใจ หรอ
-1.670269	เรา ถูกใจ อ่ะ
-0.6237547	คน ที่ สอง
-0.6237547	คน ที่ สาม
-0.9661751	คน ที่ สี่
-0.5682368	คน ที่ หนึ่ง
-0.8522341	คน ที่ ห้า
-0.04514718	ล่าสุด ที่ ไหน
-0.03728914	ศิลปิน ที่ เพื่อน
-0.04514718	หนังสือ ที่ เพื่อน
-0.9596851	เพจ ที่ สอง
-0.9596851	เพจ ที่ สาม
-1.302105	เพจ ที่ สี่
-0.9041672	เพจ ที่ หนึ่ง
-1.188165	เพจ ที่ ห้า
-0.3383191	เพจ ที่ เรา
-0.659116	โพสต์ ที่ สอง
-0.659116	โพสต์ ที่ สาม
-1.001536	โพสต์ ที่ สี่
-0.6035981	โพสต์ ที่ หนึ่ง
-0.8875954	โพสต์ ที่ ห้า
-1.151232	โพสต์ ที่ เพจ
-0.1231103	ชอบ นะ </s>
-0.04514694	สอง นะ </s>
-0.04514694	สาม นะ </s>
-0.04514694	สี่ นะ </s>
-0.04514694	หนึ่ง นะ </s>
-0.04514694	ห้า นะ </s>
-0.082407	ล่าสุด มี คน
-0.8701205	ล่าสุด มี ถูกใจ
-0.1636894	สอง มี คน
-0.6488996	สอง มี ความคิดเห็น
-1.151232	สอง มี โพสต์
-0.1636894	สาม มี คน
-0.6488996	สาม มี ความคิดเห็น
-1.151232	สาม มี โพสต์
-0.1636896	สี่ มี คน
-0.6488996	สี่ มี ความคิดเห็น
-1.151232	สี่ มี โพสต์
-0.1636894	หนึ่ง มี คน
-0.6488996	หนึ่ง มี ความคิดเห็น
-1.151232	หนึ่ง มี โพสต์
-0.1636896	ห้า มี คน
-0.6488996	ห้า มี ความคิดเห็น
-1.151232	ห้า มี โพสต์
-0.05720735	ล่าสุด มีคน ถูกใจ
-0.1231103	ชอบ ละ </s>
-0.04514694	สอง ละ </s>
-0.04514694	สาม ละ </s>
-0.04514694	สี่ ละ </s>
-0.04514694	หนึ่ง ละ </s>
-0.04514694	ห้า ละ </s>
-0.1231101	<s> ล่าสุด เรา
-0.04514718	เช็คอิน ล่าสุด ที่
-0.2133803	แชร์ ล่าสุด ของ
-1.971299	แชร์ ล่าสุด นะ
-2.14739	แชร์ ล่าสุด ละ
-2.14739	แชร์ ล่าสุด สิ
-0.8921182	แชร์ ล่าสุด หน่อย
-2.14739	แชร์ ล่าสุด หรอ
-2.14739	แชร์ ล่าสุด อ่ะ
-0.6203046	โพสต์ ล่าสุด ของ
-1.027418	โพสต์ ล่าสุด คน
-0.2745934	โพสต์ ล่าสุด มี
-1.136389	โพสต์ ล่าสุด มีคน
-0.03728914	ขอ ศิลปิน ที่
-1.530869	ที่ สอง </s>
-0.7147763	ที่ สอง ชอบ
-2.401656	ที่ สอง นะ
-0.2953544	ที่ สอง มี
-2.577747	ที่ สอง ละ
-2.577747	ที่ สอง สิ
-1.322475	ที่ สอง หน่อย
-2.577747	ที่ สอง หรอ
-2.577747	ที่ สอง อ่ะ
-0.7147763	ที่ สอง โพสต์
-0.03728914	เพื่อน สอง คน
-0.007205963	เพจ สัตว์ โลก
-1.530869	ที่ สาม </s>
-0.7147763	ที่ สาม ชอบ
-2.401656	ที่ สาม นะ
-0.2953544	ที่ สาม มี
-2.577747	ที่ สาม ละ
-2.577747	ที่ สาม สิ
-1.322475	ที่ สาม หน่อย
-2.577747	ที่ สาม หรอ
-2.577747	ที่ สาม อ่ะ
-0.7147763	ที่ สาม โพสต์
-0.03728914	เพื่อน สาม คน
-0.1231103	ชอบ สิ </s>
-0.04514694	สอง สิ </s>
-0.04514694	สาม สิ </s>
-0.04514694	สี่ สิ </s>
-0.04514694	หนึ่ง สิ </s>
-0.04514694	ห้า สิ </s>
-1.530869	ที่ สี่ </s>
-0.7147763	ที่ สี่ ชอบ
-2.401655	ที่ สี่ นะ
-0.2953544	ที่ สี่ มี
-2.577746	ที่ สี่ ละ
-2.577746	ที่ สี่ สิ
-1.322474	ที่ สี่ หน่อย
-2.577746	ที่ สี่ หรอ
-2.577746	ที่ สี่ อ่ะ
-0.7147763	ที่ สี่ โพสต์
-0.03728914	เพื่อน สี่ คน
-0.04514718	ขอ หนังสือ ที่
-1.530869	ที่ หนึ่ง </s>
-0.7147763	ที่ หนึ่ง ชอบ
-2.401656	ที่ หนึ่ง นะ
-0.2953544	ที่ หนึ่ง มี
-2.577747	ที่ หนึ่ง ละ
-2.577747	ที่ หนึ่ง สิ
-1.322474	ที่ หนึ่ง หน่อย
-2.577747	ที่ หนึ่ง หรอ
-2.577747	ที่ หนึ่ง อ่ะ
-0.7147763	ที่ หนึ่ง โพสต์
-0.03728914	เพื่อน หนึ่ง คน
-0.1231101	ชอบ หน่อย </s>
-0.04514718	สอง หน่อย </s>
-0.04514718	สาม หน่อย </s>
-0.04514694	สี่ หน่อย </s>
-0.04514718	หนึ่ง หน่อย </s>
-0.04514694	ห้า หน่อย </s>
-0.3383191	ไป หน้า เพจ
-0.3383191	ไป หน้า เพื่อน
-0.1231103	ชอบ หรอ </s>
-0.04514694	สอง หรอ </s>
-0.04514694	สาม หรอ </s>
-0.04514694	สี่ หรอ </s>
-0.04514694	หนึ่ง หรอ </s>
-0.04514694	ห้า หรอ </s>
-1.530869	ที่ ห้า </s>
-0.7147763	ที่ ห้า ชอบ
-2.401656	ที่ ห้า นะ
-0.2953544	ที่ ห้า มี
-2.577747	ที่ ห้า ละ
-2.577747	ที่ ห้า สิ
-1.322474	ที่ ห้า หน่อย
-2.577747	ที่ ห้า หรอ
-2.577747	ที่ ห้า อ่ะ
-0.7147763	ที่ ห้า โพสต์
-0.03728914	เพื่อน ห้า คน
-0.007205963	โลก อม ตีน
-0.5552044	ความคิดเห็น อะไร </s>
-0.2133803	ความคิดเห็น อะไร บ้าง
-0.4241402	ความรู้สึก อะไร </s>
-0.4241402	ความรู้สึก อะไร บ้าง
-0.5222685	เพจ อะไร </s>
-0.1980784	เพจ อะไร บ้าง
-0.5717304	โพสต์ อะไร </s>
-0.3166206	โพสต์ อะไร บ้าง
-1.04812	โพสต์ อะไร ล่าสุด
-1.269238	โพสต์ อะไร ไป
-0.04514718	ใช้ อะไร เล่น
-0.1231103	ชอบ อ่ะ </s>
-0.04514694	สอง อ่ะ </s>
-0.04514694	สาม อ่ะ </s>
-0.04514694	สี่ อ่ะ </s>
-0.04514694	หนึ่ง อ่ะ </s>
-0.04514694	ห้า อ่ะ </s>
-0.1243284	เรา เช็คอิน ล่าสุด
-0.1231102	ถูกใจ เท่าไหร่ </s>
-0.1231101	แชร์ เท่าไหร่ </s>
-0.03728902	<s> เพจ ที่
-0.03728914	ขอ เพจ ที่
-0.009026527	ของ เพจ สัตว์
-0.007205963	ชอบ เพจ อะไร
-1.494178	ถูกใจ เพจ นะ
-1.670269	ถูกใจ เพจ ละ
-1.670269	ถูกใจ เพจ สิ
-0.4149971	ถูกใจ เพจ หน่อย
-1.670269	ถูกใจ เพจ หรอ
-1.670269	ถูกใจ เพจ อ่ะ
-0.03728914	ที่ เพจ สัตว์
-1.494178	หน้า เพจ นะ
-1.670269	หน้า เพจ ละ
-1.670269	หน้า เพจ สิ
-0.4149971	หน้า เพจ หน่อย
-1.670269	หน้า เพจ หรอ
-1.670269	หน้า เพจ อ่ะ
-0.1243283	<s> เพื่อน ใช้
-0.0863874	ดู เพื่อน ของ
-1.436806	ดู เพื่อน สอง
-1.436806	ดู เพื่อน สาม
-1.779227	ดู เพื่อน สี่
-1.381288	ดู เพื่อน หนึ่ง
-1.665286	ดู เพื่อน ห้า
-0.0577302	ที่ เพื่อน ชอบ
-1.494178	หน้า เพื่อน นะ
-1.670269	หน้า เพื่อน ละ
-1.670269	หน้า เพื่อน สิ
-0.4149971	หน้า เพื่อน หน่อย
-1.670269	หน้า เพื่อน หรอ
-1.670269	หน้า เพื่อน อ่ะ
-0.1231101	เล่น เฟซ </s>
-0.5502971	<s> เรา เช็คอิน
-0.182669	<s> เรา โพสต์
-0.3791132	ที่ เรา ชอบ
-0.3791132	ที่ เรา ถูกใจ
-0.299932	อะไร เล่น เฟซ
-0.5210502	อะไร เล่น เฟซบุค
-0.03728914	ขอ เวลา โพสต์
-0.3383191	คน แชร์ กี่
-0.3383191	คน แชร์ เท่าไหร่
-0.03728914	จำนวน แชร์ ล่าสุด
-0.03728914	ตีน แชร์ ล่าสุด
-0.4380462	คน แสดง ความคิดเห็น
-0.2113259	คน แสดง ความรู้สึก
-0.1790793	<s> โพสต์ ที่
-0.483118	<s> โพสต์ ล่าสุด
-0.3383191	ขอ โพสต์ ที่
-0.3383191	ขอ โพสต์ ล่าสุด
-0.03728914	มี โพสต์ อะไร
-0.007205963	สอง โพสต์ อะไร
-0.007205963	สาม โพสต์ อะไร
-0.007205963	สี่ โพสต์ อะไร
-0.007205963	หนึ่ง โพสต์ อะไร
-0.007205963	ห้า โพสต์ อะไร
-0.0182445	เรา โพสต์ อะไร
-0.03728914	เวลา โพสต์ ล่าสุด
-0.007205963	สัตว์ โลก อม
-0.1243284	เพื่อน ใช้ อะไร
-0.0182445	กลับ ไป หน้า
-0.2992015	ที่ ไหน </s>

\end\
