
\data\
ngram 1=55
ngram 2=264
ngram 3=193
ngram 4=353
ngram 5=361

\1-grams:
-0.9197315	</s>
-99	<s>	-1.549953
-2.123852	กลับ	-0.1853051
-1.521792	กี่	-0.7738973
-2.123852	ขอ	-0.1211123
-1.64673	ของ	-0.3233063
-1.3457	คน	-0.2515072
-1.822822	ความคิดเห็น	-0.1543937
-2.123852	ความรู้สึก	-0.1543937
-1.822822	จำนวน	-0.3375468
-1.64673	ชอบ	-0.06366897
-2.123852	ดู	-0.1718376
-2.123852	ตีน	-0.08922314
-1.3457	ถูกใจ	-0.2079128
-1.220762	ที่	-0.4335216
-2.364585	นะ	-0.4993971
-1.521792	บ้าง	-0.3085831
-1.822822	มี	-0.2180223
-2.123852	มีคน	-0.1718375
-2.540677	ละ	-0.4993971
-1.278754	ล่าสุด	-0.09059973
-2.123852	ศิลปิน	-0.1649439
-2.444188	สอง	-0.02707523
-2.123852	สัตว์	-0.1886078
-2.444188	สาม	-0.02707523
-2.540677	สิ	-0.4993971
-2.786608	สี่	-0.02707523
-1.822822	หนังสือ	-0.1399159
-2.38867	หนึ่ง	-0.02707523
-1.285404	หน่อย	-0.4993975
-2.123852	หน้า	-0.1543937
-2.540677	หรอ	-0.4993971
-2.672668	ห้า	-0.02707537
-2.123852	อม	-0.1886078
-2.123852	อะ	-0.1362197
-1.278754	อะไร	-0.3375469
-2.540677	อ่ะ	-0.4993971
-2.123852	เช็คอิน	-0.1399159
-1.822822	เท่าไหร่	-0.4372497
-1.278754	เพจ	-0.2870942
-1.521792	เพื่อน	-0.1886078
-2.123852	เฟซ	-0.1362197
-2.123852	เฟซบุค	-0.1786236
-1.64673	เรา	-0.312311
-1.822822	เล่น	-0.3613965
-2.123852	เวลา	-0.1718375
-1.64673	แชร์	-0.2721538
-2.123852	แล้ว
-2.123852	แสดง	-0.1819772
-1.3457	โพสต์	-0.5393258
-2.123852	โลก	-0.1886078
-2.123852	ใช้	-0.1614556
-1.822822	ไป	-0.1508193
-2.123852	ไว้	-0.1684044
-2.123852	ไหน	-0.1211123

\2-grams:
-1.421852	<s> กลับ	-1.014537
-0.5308796	<s> ขอ	-1.039647
-0.7036483	<s> คน	-1.853272
-2.344496	<s> ล่าสุด	-0.4151509
-2.924279	<s> อะไร
-1.748188	<s> เพจ	-0.8344064
-1.748188	<s> เพื่อน	-0.4553639
-1.290811	<s> เรา	-0.7688113
-0.4462903	<s> โพสต์	-1.58857
-0.4471581	กลับ ไป	-1.490116e-08
-0.07609022	กี่ คน	-0.6043638
-1.292256	ขอ จำนวน	8.940697e-08
-1.292256	ขอ ดู	0
-1.292256	ขอ ศิลปิน	0
-1.292256	ขอ หนังสือ	-2.980232e-08
-1.292256	ขอ เพจ	4.470348e-08
-1.292256	ขอ เวลา	0
-1.292256	ขอ โพสต์	0
-0.9242792	ของ คน	0
-0.3444958	ของ เพจ	-0.3572858
-0.9465556	คน </s>
-0.9465556	คน ถูกใจ	-0.1640823
-0.9465556	คน ที่	-0.3115276
-2.721316	คน นะ
-2.897407	คน ละ
-2.897407	คน สิ
-1.642135	คน หน่อย
-2.897407	คน หรอ
-2.897407	คน อ่ะ
-0.9465556	คน แชร์	-0.3428425
-1.526339	คน แล้ว
-0.9465556	คน แสดง	-0.1496389
-0.7481881	ความคิดเห็น กี่	-6.556511e-07
-0.7481881	ความคิดเห็น อะไร	0
-0.748188	ความรู้สึก กี่	-6.556511e-07
-0.748188	ความรู้สึก อะไร	0
-0.3444957	จำนวน ถูกใจ	0
-0.9242793	จำนวน แชร์	0
-1.049218	ชอบ </s>
-2.244195	ชอบ นะ	0
-2.420286	ชอบ ละ	0
-2.420286	ชอบ สิ	0
-1.049218	ชอบ หนังสือ
-1.165014	ชอบ หน่อย	0
-2.420286	ชอบ หรอ	0
-2.420286	ชอบ อ่ะ	0
-1.049218	ชอบ เพจ	0
-0.748188	ดู จำนวน	8.940697e-08
-0.748188	ดู เพื่อน	3.72529e-09
-0.9242792	ตีน </s>
-2.119256	ตีน นะ
-2.295347	ตีน ละ
-2.295347	ตีน สิ
-1.040075	ตีน หน่อย
-2.295347	ตีน หรอ
-2.295347	ตีน อ่ะ
-0.9242792	ตีน แชร์	0
-1.401401	ถูกใจ </s>
-0.8216169	ถูกใจ กี่	0.3656727
-1.401401	ถูกใจ ของ	0
-2.596378	ถูกใจ นะ
-2.772469	ถูกใจ ละ
-2.772469	ถูกใจ สิ
-1.517197	ถูกใจ หน่อย
-2.772469	ถูกใจ หรอ
-2.772469	ถูกใจ อ่ะ
-0.5818566	ถูกใจ เท่าไหร่	0.0646427
-1.401401	ถูกใจ เพจ	0
-1.24898	ที่ สอง	-0.07516833
-1.24898	ที่ สาม	-0.07516833
-1.5914	ที่ สี่	-0.07516831
-1.193462	ที่ หนึ่ง	-0.07516833
-1.47746	ที่ ห้า	-0.07516833
-1.447158	ที่ เพจ	0
-0.627614	ที่ เพื่อน	-0.154334
-1.447158	ที่ เรา	0
-0.8673744	ที่ ไหน	-0.1496389
-0.1730003	นะ </s>
-2.341105	นะ นะ
-2.517196	นะ ละ
-2.517196	นะ สิ
-1.261924	นะ หน่อย
-2.517196	นะ หรอ
-2.517196	นะ อ่ะ
-0.3444957	บ้าง </s>
-0.9242793	บ้าง อะ
-0.5663444	มี คน	-0.1910449
-1.146128	มี ความคิดเห็น	-2.980232e-08
-1.146128	มี ถูกใจ	0
-1.146128	มี โพสต์	0
-0.4471581	มีคน ถูกใจ	0
-0.1730003	ละ </s>
-2.341105	ละ นะ
-2.517196	ละ ละ
-2.517196	ละ สิ
-1.261924	ละ หน่อย
-2.517196	ละ หรอ
-2.517196	ละ อ่ะ
-0.7067952	ล่าสุด </s>
-0.9465556	ล่าสุด ของ	-0.1667511
-1.526339	ล่าสุด คน	0
-1.526339	ล่าสุด ถูกใจ
-1.526339	ล่าสุด ที่	0
-2.721316	ล่าสุด นะ
-1.526339	ล่าสุด มี	4.470348e-08
-1.526339	ล่าสุด มีคน	0
-2.897407	ล่าสุด ละ
-2.897407	ล่าสุด สิ
-1.642135	ล่าสุด หน่อย
-2.897407	ล่าสุด หรอ
-2.897407	ล่าสุด อ่ะ
-1.526339	ล่าสุด เรา
-0.4471581	ศิลปิน ที่	0
-1.225309	สอง </s>
-1.225309	สอง คน	0
-1.225309	สอง ชอบ	0
-2.420285	สอง นะ	0
-1.225309	สอง มี	-2.980232e-08
-2.596377	สอง ละ	0
-2.596377	สอง สิ	0
-1.341105	สอง หน่อย	0
-2.596377	สอง หรอ	0
-2.596377	สอง อ่ะ	0
-1.225309	สอง โพสต์	0
-0.4471581	สัตว์ โลก	0
-1.225309	สาม </s>
-1.225309	สาม คน	0
-1.225309	สาม ชอบ	0
-2.420285	สาม นะ	0
-1.225309	สาม มี	-2.980232e-08
-2.596377	สาม ละ	0
-2.596377	สาม สิ	0
-1.341105	สาม หน่อย	0
-2.596377	สาม หรอ	0
-2.596377	สาม อ่ะ	0
-1.225309	สาม โพสต์	0
-0.1730003	สิ </s>
-2.341105	สิ นะ
-2.517196	สิ ละ
-2.517196	สิ สิ
-1.261924	สิ หน่อย
-2.517196	สิ หรอ
-2.517196	สิ อ่ะ
-1.225309	สี่ </s>
-1.225309	สี่ คน	0
-1.225309	สี่ ชอบ	0
-2.420285	สี่ นะ	0
-1.225309	สี่ มี	-2.980232e-08
-2.596377	สี่ ละ	0
-2.596377	สี่ สิ	0
-1.341105	สี่ หน่อย	0
-2.596377	สี่ หรอ	0
-2.596377	สี่ อ่ะ	0
-1.225309	สี่ โพสต์	0
-0.7481881	หนังสือ ที่	0
-0.7481881	หนังสือ อะไร
-1.225309	หนึ่ง </s>
-1.225309	หนึ่ง คน	0
-1.225309	หนึ่ง ชอบ	-2.607703e-08
-2.420286	หนึ่ง นะ	0
-1.225309	หนึ่ง มี	-1.937151e-07
-2.596377	หนึ่ง ละ	0
-2.596377	หนึ่ง สิ	0
-1.341105	หนึ่ง หน่อย	0
-2.596377	หนึ่ง หรอ	0
-2.596377	หนึ่ง อ่ะ	0
-1.225309	หนึ่ง โพสต์	-1.043081e-07
-0.1730002	หน่อย </s>
-2.341105	หน่อย นะ
-2.517196	หน่อย ละ
-2.517196	หน่อย สิ
-1.261924	หน่อย หน่อย
-2.517196	หน่อย หรอ
-2.517196	หน่อย อ่ะ
-0.748188	หน้า เพจ	0
-0.748188	หน้า เพื่อน	0
-0.1730003	หรอ </s>
-2.341105	หรอ นะ
-2.517196	หรอ ละ
-2.517196	หรอ สิ
-1.261924	หรอ หน่อย
-2.517196	หรอ หรอ
-2.517196	หรอ อ่ะ
-1.225309	ห้า </s>
-1.225309	ห้า คน	0
-1.225309	ห้า ชอบ	0
-2.420286	ห้า นะ	0
-1.225309	ห้า มี	-2.980232e-08
-2.596377	ห้า ละ	0
-2.596377	ห้า สิ	0
-1.341105	ห้า หน่อย	0
-2.596377	ห้า หรอ	0
-2.596377	ห้า อ่ะ	0
-1.225309	ห้า โพสต์	0
-0.4471581	อม ตีน	0
-0.4471581	อะ </s>
-0.5069262	อะไร </s>
-1.593286	อะไร ที่
-0.6201582	อะไร บ้าง
-1.593286	อะไร ล่าสุด
-1.593286	อะไร เล่น	0
-1.593286	อะไร ไป
-1.593286	อะไร ไว้
-0.1730003	อ่ะ </s>
-2.341105	อ่ะ นะ
-2.517196	อ่ะ ละ
-2.517196	อ่ะ สิ
-1.261924	อ่ะ หน่อย
-2.517196	อ่ะ หรอ
-2.517196	อ่ะ อ่ะ
-0.748188	เช็คอิน ที่
-0.748188	เช็คอิน ล่าสุด	7.450581e-09
-0.1684045	เท่าไหร่ </s>
-0.8216169	เพจ </s>
-0.8216169	เพจ ที่	-2.980232e-08
-2.016593	เพจ นะ
-2.192685	เพจ ละ
-0.8216169	เพจ สัตว์	-0.2363871
-2.192685	เพจ สิ
-0.9374125	เพจ หน่อย
-2.192685	เพจ หรอ
-1.401401	เพจ อะไร	0
-2.192685	เพจ อ่ะ
-1.350248	เพื่อน </s>
-1.350248	เพื่อน ของ	0
-0.7704643	เพื่อน ชอบ	1.117587e-08
-2.545225	เพื่อน นะ
-2.721316	เพื่อน ละ
-1.971614	เพื่อน สอง	0
-1.971614	เพื่อน สาม	0
-2.721316	เพื่อน สิ
-2.314034	เพื่อน สี่	1.490116e-08
-1.916096	เพื่อน หนึ่ง	-1.490116e-08
-1.466044	เพื่อน หน่อย
-2.721316	เพื่อน หรอ
-2.200094	เพื่อน ห้า	0
-2.721316	เพื่อน อ่ะ
-0.7704643	เพื่อน ใช้	0
-0.4471581	เฟซ </s>
-0.4471581	เฟซบุค บ้าง
-1.225309	เรา ชอบ
-1.225309	เรา ถูกใจ	0
-0.6455257	เรา เช็คอิน	0
-0.6455257	เรา โพสต์	-0.2766816
-0.3444957	เล่น เฟซ	-0.2363871
-0.9242793	เล่น เฟซบุค
-0.4471581	เวลา โพสต์	0
-1.049218	แชร์ กี่	-6.556511e-07
-0.4694345	แชร์ ล่าสุด	0
-1.049218	แชร์ เท่าไหร่	0
-0.748188	แสดง ความคิดเห็น	-2.980232e-08
-0.748188	แสดง ความรู้สึก	0
-0.7704644	โพสต์ ที่	0
-0.530704	โพสต์ ล่าสุด	-0.04969756
-0.530704	โพสต์ อะไร	0.04597688
-0.4471581	โลก อม	0
-0.748188	ใช้ อะไร	6.519258e-09
-0.748188	ใช้ เล่น
-0.9242793	ไป บ้าง
-0.9242793	ไป ล่าสุด
-0.9242793	ไป หน้า	0
-0.4471581	ไว้ ล่าสุด
-0.748188	ไหน </s>
-0.748188	ไหน บ้าง

\3-grams:
-0.02787566	<s> กลับ ไป	-1.058895
-0.0760901	ความคิดเห็น กี่ คน	-0.2481692
-0.0760901	ความรู้สึก กี่ คน	-0.6741388
-0.2027435	ถูกใจ กี่ คน	-0.6741388
-0.0760901	แชร์ กี่ คน	-0.523015
-0.8980843	<s> ขอ จำนวน	-0.7459671
-0.3339243	<s> ขอ ดู	-1.441582
-1.228903	<s> ขอ ศิลปิน	-0.6532128
-1.320596	<s> ขอ หนังสือ	-0.6927213
-1.228903	<s> ขอ เพจ	-0.7741116
-1.228903	<s> ขอ เวลา	-0.6532128
-0.8980843	<s> ขอ โพสต์	-0.842877
-0.3444958	ถูกใจ ของ เพจ	-0.4168258
-0.2027435	ล่าสุด ของ เพจ	-0.8504804
-0.9242792	เพื่อน ของ คน	-1.439237
-0.005433798	<s> คน ที่	-1.35703
-0.3326848	กี่ คน </s>
-0.4921503	กี่ คน แล้ว
-0.9465556	ของ คน ที่	-1.063076
-0.6006835	มี คน ถูกใจ	-1.065961
-1.137601	มี คน แชร์	-0.6131195
-0.6006835	มี คน แสดง	-1.33057
-0.9465556	ล่าสุด คน แสดง	-0.5594724
-0.748188	มี ความคิดเห็น อะไร	-1.048829
-0.748188	แสดง ความคิดเห็น กี่	-0.484807
-0.748188	แสดง ความรู้สึก กี่	-0.6039932
-0.748188	แสดง ความรู้สึก อะไร	-0.4467684
-0.3444958	ขอ จำนวน ถูกใจ	-0.8275132
-0.9242792	ขอ จำนวน แชร์	-0.6651106
-0.3444958	ดู จำนวน ถูกใจ	-0.8275132
-1.049218	สอง ชอบ เพจ	-1.473782
-1.049218	สาม ชอบ เพจ	-1.473782
-1.049218	สี่ ชอบ เพจ	-1.473782
-1.049218	หนึ่ง ชอบ เพจ	-1.473782
-1.049218	ห้า ชอบ เพจ	-1.473782
-2.244195	เพื่อน ชอบ นะ	-0.3111729
-2.420286	เพื่อน ชอบ ละ	-0.3111729
-2.420286	เพื่อน ชอบ สิ	-0.3111729
-1.165014	เพื่อน ชอบ หน่อย	-0.3111714
-2.420286	เพื่อน ชอบ หรอ	-0.3111729
-2.420286	เพื่อน ชอบ อ่ะ	-0.3111729
-0.748188	ขอ ดู จำนวน	-0.5835755
-0.748188	ขอ ดู เพื่อน	-1.527575
-0.9242792	อม ตีน แชร์	-0.665112
-0.3788347	คน ถูกใจ กี่	-0.8939485
-1.401401	จำนวน ถูกใจ ของ	-0.5835769
-1.401401	จำนวน ถูกใจ เพจ	-0.2852356
-0.8216169	มีคน ถูกใจ กี่	-0.2706975
-0.8241096	คน ที่ สอง	-1.783769
-0.8241096	คน ที่ สาม	-1.783769
-1.16653	คน ที่ สี่	-1.783767
-0.7685916	คน ที่ หนึ่ง	-1.783768
-1.052589	คน ที่ ห้า	-1.783768
-0.627614	ศิลปิน ที่ เพื่อน	-0.6100292
-0.627614	หนังสือ ที่ เพื่อน	-0.5430824
-1.24898	เพจ ที่ สอง	-0.7432777
-1.24898	เพจ ที่ สาม	-0.7432777
-1.5914	เพจ ที่ สี่	-0.7432777
-1.193462	เพจ ที่ หนึ่ง	-0.7432777
-1.477459	เพจ ที่ ห้า	-0.7432762
-1.447158	เพจ ที่ เรา	-0.8644339
-1.24898	โพสต์ ที่ สอง	-1.761509
-1.24898	โพสต์ ที่ สาม	-1.761509
-1.5914	โพสต์ ที่ สี่	-1.761509
-1.193462	โพสต์ ที่ หนึ่ง	-1.761509
-1.47746	โพสต์ ที่ ห้า	-1.761526
-1.447158	โพสต์ ที่ เพจ	-0.7741115
-0.5663445	ล่าสุด มี คน	-1.464898
-1.146128	ล่าสุด มี ถูกใจ	-0.5670825
-0.5663443	สอง มี คน	-1.437954
-1.146128	สอง มี ความคิดเห็น	-1.193327
-1.146128	สอง มี โพสต์	-0.6935059
-0.5663443	สาม มี คน	-1.437954
-1.146128	สาม มี ความคิดเห็น	-1.193327
-1.146128	สาม มี โพสต์	-0.6935059
-0.5663443	สี่ มี คน	-1.437954
-1.146128	สี่ มี ความคิดเห็น	-1.193327
-1.146128	สี่ มี โพสต์	-0.6935059
-0.566344	หนึ่ง มี คน	-1.437954
-1.146128	หนึ่ง มี ความคิดเห็น	-1.193327
-1.146128	หนึ่ง มี โพสต์	-0.6935059
-0.5663443	ห้า มี คน	-1.437954
-1.146128	ห้า มี ความคิดเห็น	-1.193327
-1.146128	ห้า มี โพสต์	-0.6935059
-0.4471581	ล่าสุด มีคน ถูกใจ	-0.6279833
-0.2027435	<s> ล่าสุด เรา
-1.526339	เช็คอิน ล่าสุด ที่	-0.7148088
-0.9465556	แชร์ ล่าสุด ของ	-0.4168258
-0.6798646	โพสต์ ล่าสุด ของ	-0.6856703
-1.576037	โพสต์ ล่าสุด คน	-0.3722376
-1.576037	โพสต์ ล่าสุด มี	-1.249023
-1.576037	โพสต์ ล่าสุด มีคน	-0.5070846
-0.4471581	ขอ ศิลปิน ที่	-0.728354
-1.300478	ที่ สอง ชอบ	-1.450742
-2.495455	ที่ สอง นะ	-0.2947816
-0.6798646	ที่ สอง มี	-1.665312
-2.671546	ที่ สอง ละ	-0.2947816
-2.671546	ที่ สอง สิ	-0.2947816
-1.416274	ที่ สอง หน่อย	-0.2947814
-2.671546	ที่ สอง หรอ	-0.2947816
-2.671546	ที่ สอง อ่ะ	-0.2947816
-1.300478	ที่ สอง โพสต์	-1.339769
-1.225309	เพื่อน สอง คน	-0.3431004
-0.2027435	เพจ สัตว์ โลก	-1.299474
-1.300478	ที่ สาม ชอบ	-1.450742
-2.495455	ที่ สาม นะ	-0.2947816
-0.6798646	ที่ สาม มี	-1.665312
-2.671546	ที่ สาม ละ	-0.2947816
-2.671546	ที่ สาม สิ	-0.2947816
-1.416274	ที่ สาม หน่อย	-0.2947814
-2.671546	ที่ สาม หรอ	-0.2947816
-2.671546	ที่ สาม อ่ะ	-0.2947816
-1.300478	ที่ สาม โพสต์	-1.339769
-1.225309	เพื่อน สาม คน	-0.3431004
-1.300478	ที่ สี่ ชอบ	-1.450735
-2.495455	ที่ สี่ นะ	-0.294784
-0.6798646	ที่ สี่ มี	-1.665307
-2.671546	ที่ สี่ ละ	-0.294784
-2.671546	ที่ สี่ สิ	-0.294784
-1.416274	ที่ สี่ หน่อย	-0.2947814
-2.671546	ที่ สี่ หรอ	-0.294784
-2.671546	ที่ สี่ อ่ะ	-0.294784
-1.300478	ที่ สี่ โพสต์	-1.339762
-1.225309	เพื่อน สี่ คน	-0.3431004
-0.748188	ขอ หนังสือ ที่	-0.6614072
-1.300478	ที่ หนึ่ง ชอบ	-1.450742
-2.495454	ที่ หนึ่ง นะ	-0.2947792
-0.6798646	ที่ หนึ่ง มี	-1.665314
-2.671546	ที่ หนึ่ง ละ	-0.2947792
-2.671546	ที่ หนึ่ง สิ	-0.2947792
-1.416274	ที่ หนึ่ง หน่อย	-0.2947814
-2.671546	ที่ หนึ่ง หรอ	-0.2947792
-2.671546	ที่ หนึ่ง อ่ะ	-0.2947792
-1.300478	ที่ หนึ่ง โพสต์	-1.339769
-1.225309	เพื่อน หนึ่ง คน	-0.3431003
-0.748188	ไป หน้า เพจ	-0.2852356
-0.748188	ไป หน้า เพื่อน	-0.3363881
-1.300478	ที่ ห้า ชอบ	-1.450749
-2.495454	ที่ ห้า นะ	-0.2947792
-0.6798644	ที่ ห้า มี	-1.665299
-2.671546	ที่ ห้า ละ	-0.2947792
-2.671546	ที่ ห้า สิ	-0.2947792
-1.416274	ที่ ห้า หน่อย	-0.2947814
-2.671546	ที่ ห้า หรอ	-0.2947792
-2.671546	ที่ ห้า อ่ะ	-0.2947792
-1.300478	ที่ ห้า โพสต์	-1.339776
-1.225309	เพื่อน ห้า คน	-0.3431003
-0.4471581	โลก อม ตีน	-1.086867
-0.6012948	โพสต์ อะไร </s>
-0.6012948	โพสต์ อะไร บ้าง
-1.593286	ใช้ อะไร เล่น	-0.4971465
-0.748188	เรา เช็คอิน ล่าสุด	-0.7650298
-0.2027434	ถูกใจ เท่าไหร่ </s>
-0.05766392	<s> เพจ ที่	-0.7283511
-0.8216171	ขอ เพจ ที่	-0.8293026
-0.2027435	ของ เพจ สัตว์	-0.9696665
-1.401401	ชอบ เพจ อะไร	-0.8563454
-0.8216169	ที่ เพจ สัตว์	-0.4168258
-0.1493571	<s> เพื่อน ใช้	-0.6927213
-1.350248	ดู เพื่อน ของ	-1.436319
-1.971614	ดู เพื่อน สอง	-0.8184447
-1.971614	ดู เพื่อน สาม	-0.8184447
-2.314035	ดู เพื่อน สี่	-0.8184447
-1.916096	ดู เพื่อน หนึ่ง	-0.8184447
-2.200094	ดู เพื่อน ห้า	-0.8184447
-0.3788347	ที่ เพื่อน ชอบ	-1.186231
-0.2027435	เล่น เฟซ </s>
-0.5753257	<s> เรา เช็คอิน	-0.6927213
-0.193228	<s> เรา โพสต์	-0.6509079
-1.225309	ที่ เรา ถูกใจ	-0.3386369
-0.4471581	ขอ เวลา โพสต์	-0.6935074
-0.5037735	คน แชร์ กี่	-0.05115241
-0.5037735	คน แชร์ เท่าไหร่	-0.3016261
-0.4694345	จำนวน แชร์ ล่าสุด	-0.7929753
-0.4694345	ตีน แชร์ ล่าสุด	-0.3431007
-0.8978269	คน แสดง ความคิดเห็น	-1.193323
-0.3788347	คน แสดง ความรู้สึก	-1.299474
-0.1806147	<s> โพสต์ ที่	-1.746547
-0.4862157	<s> โพสต์ ล่าสุด	-1.520263
-0.7704644	ขอ โพสต์ ที่	-0.8293026
-0.530704	ขอ โพสต์ ล่าสุด	-0.7432762
-0.530704	มี โพสต์ อะไร	-0.2310284
-0.530704	สอง โพสต์ อะไร	-0.9023271
-0.530704	สาม โพสต์ อะไร	-0.9023271
-0.530704	สี่ โพสต์ อะไร	-0.9023271
-0.5307038	หนึ่ง โพสต์ อะไร	-0.9023223
-0.530704	ห้า โพสต์ อะไร	-0.9023223
-0.2027435	เรา โพสต์ อะไร	-0.2795656
-0.530704	เวลา โพสต์ ล่าสุด	-0.7432777
-0.4471581	สัตว์ โลก อม	-1.299474
-0.748188	เพื่อน ใช้ อะไร	-0.7669288
-0.9242792	กลับ ไป หน้า	-0.9220583
-0.3788347	ที่ ไหน </s>

\4-grams:
-0.02348113	แสดง ความคิดเห็น กี่ คน	0.5770572
-0.01772881	แสดง ความรู้สึก กี่ คน	0.5770578
-0.02118921	คน ถูกใจ กี่ คน	0.6350496
-0.09691	มีคน ถูกใจ กี่ คน
-0.06694674	คน แชร์ กี่ คน	-0.07076061
-0.06694674	จำนวน ถูกใจ ของ เพจ	0
-0.06694674	แชร์ ล่าสุด ของ เพจ	0.4336546
-0.03476214	โพสต์ ล่าสุด ของ เพจ	0.1648101
-0.01424026	ดู เพื่อน ของ คน	-7.152557e-06
-0.3567302	ความคิดเห็น กี่ คน </s>
-0.3567302	ความคิดเห็น กี่ คน แล้ว
-0.2041199	ความรู้สึก กี่ คน </s>
-0.4816689	ความรู้สึก กี่ คน แล้ว
-0.2041199	ถูกใจ กี่ คน </s>
-0.4816689	ถูกใจ กี่ คน แล้ว
-0.07597613	แชร์ กี่ คน </s>
-0.0142405	เพื่อน ของ คน ที่	0
-1.117369	ล่าสุด มี คน ถูกใจ
-0.3424227	ล่าสุด มี คน แชร์	0
-0.3424227	ล่าสุด มี คน แสดง	-0.6480496
-0.4850903	สอง มี คน ถูกใจ	0.02227271
-0.1840601	สอง มี คน แสดง	0.1038907
-0.4850903	สาม มี คน ถูกใจ	0.02227271
-0.1840601	สาม มี คน แสดง	0.1038907
-0.4850903	สี่ มี คน ถูกใจ	0.02227271
-0.1840601	สี่ มี คน แสดง	0.1038907
-0.4850903	หนึ่ง มี คน ถูกใจ	0.02227271
-0.1840601	หนึ่ง มี คน แสดง	0.1038907
-0.4850903	ห้า มี คน ถูกใจ	0.02227271
-0.1840601	ห้า มี คน แสดง	0.1038907
-0.4739161	โพสต์ ล่าสุด คน แชร์
-0.4739161	โพสต์ ล่าสุด คน แสดง	-0.07076061
-1.447044	เพื่อน สอง คน นะ
-1.623135	เพื่อน สอง คน ละ
-1.623135	เพื่อน สอง คน สิ
-0.3678632	เพื่อน สอง คน หน่อย
-1.623135	เพื่อน สอง คน หรอ
-1.623135	เพื่อน สอง คน อ่ะ
-1.447044	เพื่อน สาม คน นะ
-1.623135	เพื่อน สาม คน ละ
-1.623135	เพื่อน สาม คน สิ
-0.3678632	เพื่อน สาม คน หน่อย
-1.623135	เพื่อน สาม คน หรอ
-1.623135	เพื่อน สาม คน อ่ะ
-1.447044	เพื่อน สี่ คน นะ
-1.623135	เพื่อน สี่ คน ละ
-1.623135	เพื่อน สี่ คน สิ
-0.3678632	เพื่อน สี่ คน หน่อย
-1.623135	เพื่อน สี่ คน หรอ
-1.623135	เพื่อน สี่ คน อ่ะ
-1.447044	เพื่อน หนึ่ง คน นะ
-1.623136	เพื่อน หนึ่ง คน ละ
-1.623136	เพื่อน หนึ่ง คน สิ
-0.3678632	เพื่อน หนึ่ง คน หน่อย
-1.623136	เพื่อน หนึ่ง คน หรอ
-1.623136	เพื่อน หนึ่ง คน อ่ะ
-1.447044	เพื่อน ห้า คน นะ
-1.623136	เพื่อน ห้า คน ละ
-1.623136	เพื่อน ห้า คน สิ
-0.3678632	เพื่อน ห้า คน หน่อย
-1.623136	เพื่อน ห้า คน หรอ
-1.623136	เพื่อน ห้า คน อ่ะ
-0.02348089	สอง มี ความคิดเห็น อะไร	0.5770584
-0.02348089	สาม มี ความคิดเห็น อะไร	0.5770584
-0.02348089	สี่ มี ความคิดเห็น อะไร	0.5770584
-0.02348089	หนึ่ง มี ความคิดเห็น อะไร	0.5770584
-0.02348089	ห้า มี ความคิดเห็น อะไร	0.5770584
-0.02348113	คน แสดง ความคิดเห็น กี่	0
-0.1111505	คน แสดง ความรู้สึก กี่	0
-0.7132106	คน แสดง ความรู้สึก อะไร	-0.07075924
-0.3357921	<s> ขอ จำนวน ถูกใจ	0
-0.3357921	<s> ขอ จำนวน แชร์	-1.430511e-06
-0.06694698	ขอ ดู จำนวน ถูกใจ	1.430511e-06
-0.0142405	ที่ สอง ชอบ เพจ	7.152557e-06
-0.0142405	ที่ สาม ชอบ เพจ	7.152557e-06
-0.01424074	ที่ สี่ ชอบ เพจ	0
-0.0142405	ที่ หนึ่ง ชอบ เพจ	7.152557e-06
-0.01424026	ที่ ห้า ชอบ เพจ	0
-0.5530975	ที่ เพื่อน ชอบ </s>
-1.371068	ที่ เพื่อน ชอบ นะ	-0.07075936
-1.547159	ที่ เพื่อน ชอบ ละ	-0.07075936
-1.547159	ที่ เพื่อน ชอบ สิ	-0.07075936
-0.2918868	ที่ เพื่อน ชอบ หน่อย	-0.07076061
-1.547159	ที่ เพื่อน ชอบ หรอ	-0.07075936
-1.547159	ที่ เพื่อน ชอบ อ่ะ	-0.07075936
-0.8553172	<s> ขอ ดู จำนวน	-1.430511e-06
-0.07716596	<s> ขอ ดู เพื่อน	-7.987022e-06
-0.6766937	โลก อม ตีน </s>
-1.57064	โลก อม ตีน นะ
-1.746731	โลก อม ตีน ละ
-1.746731	โลก อม ตีน สิ
-0.4914591	โลก อม ตีน หน่อย
-1.746731	โลก อม ตีน หรอ
-1.746731	โลก อม ตีน อ่ะ
-0.5006025	โลก อม ตีน แชร์	0
-0.0222764	มี คน ถูกใจ กี่	0.02119112
-0.06694674	ขอ จำนวน ถูกใจ ของ	0
-0.06694674	ดู จำนวน ถูกใจ เพจ	-0.01616311
-0.09691	ล่าสุด มี ถูกใจ เท่าไหร่
-0.09691	ล่าสุด มีคน ถูกใจ กี่	0
-1.447044	ที่ เรา ถูกใจ นะ
-1.623135	ที่ เรา ถูกใจ ละ
-1.623135	ที่ เรา ถูกใจ สิ
-0.3678632	ที่ เรา ถูกใจ หน่อย
-1.623135	ที่ เรา ถูกใจ หรอ
-1.623135	ที่ เรา ถูกใจ อ่ะ
-0.6285446	<s> คน ที่ สอง	-1.108636
-0.6285446	<s> คน ที่ สาม	-1.108636
-0.9709649	<s> คน ที่ สี่	-1.108636
-0.5730267	<s> คน ที่ หนึ่ง	-1.108636
-0.8570242	<s> คน ที่ ห้า	-1.108636
-0.6356063	ของ คน ที่ สอง	-1.108633
-0.6356063	ของ คน ที่ สาม	-1.108633
-0.9780269	ของ คน ที่ สี่	-1.108633
-0.5800886	ของ คน ที่ หนึ่ง	-1.108634
-0.8640862	ของ คน ที่ ห้า	-1.108634
-0.07918119	เช็คอิน ล่าสุด ที่ ไหน
-0.06694674	ขอ ศิลปิน ที่ เพื่อน	0
-0.07918119	ขอ หนังสือ ที่ เพื่อน	0
-0.6883128	<s> เพจ ที่ สอง	0
-0.6883128	<s> เพจ ที่ สาม	0
-1.030733	<s> เพจ ที่ สี่	0
-0.6327949	<s> เพจ ที่ หนึ่ง	0
-0.9167924	<s> เพจ ที่ ห้า	-1.430511e-06
-0.06694698	ขอ เพจ ที่ เรา	0.5770589
-0.6273563	<s> โพสต์ ที่ สอง	8.583069e-06
-0.6273563	<s> โพสต์ ที่ สาม	8.583069e-06
-0.9697769	<s> โพสต์ ที่ สี่	8.583069e-06
-0.5718384	<s> โพสต์ ที่ หนึ่ง	8.583069e-06
-0.8558359	<s> โพสต์ ที่ ห้า	2.574921e-05
-0.06694698	ขอ โพสต์ ที่ เพจ	1.430511e-06
-0.07597589	เพื่อน ชอบ นะ </s>
-0.07918119	ที่ สอง นะ </s>
-0.07918119	ที่ สาม นะ </s>
-0.07918072	ที่ สี่ นะ </s>
-0.07918167	ที่ หนึ่ง นะ </s>
-0.07918167	ที่ ห้า นะ </s>
-0.0889411	โพสต์ ล่าสุด มี คน	-0.07075977
-0.8293037	โพสต์ ล่าสุด มี ถูกใจ	0
-0.1652334	ที่ สอง มี คน	0
-0.6423545	ที่ สอง มี ความคิดเห็น	4.291534e-06
-1.119476	ที่ สอง มี โพสต์	0
-0.1652334	ที่ สาม มี คน	0
-0.6423545	ที่ สาม มี ความคิดเห็น	4.291534e-06
-1.119476	ที่ สาม มี โพสต์	0
-0.1652334	ที่ สี่ มี คน	0
-0.6423547	ที่ สี่ มี ความคิดเห็น	0
-1.119476	ที่ สี่ มี โพสต์	0
-0.1652334	ที่ หนึ่ง มี คน	0
-0.6423545	ที่ หนึ่ง มี ความคิดเห็น	4.291534e-06
-1.119476	ที่ หนึ่ง มี โพสต์	0
-0.1652336	ที่ ห้า มี คน	0
-0.6423545	ที่ ห้า มี ความคิดเห็น	0
-1.119476	ที่ ห้า มี โพสต์	0
-0.09691	โพสต์ ล่าสุด มีคน ถูกใจ	0
-0.07597589	เพื่อน ชอบ ละ </s>
-0.07918119	ที่ สอง ละ </s>
-0.07918119	ที่ สาม ละ </s>
-0.07918072	ที่ สี่ ละ </s>
-0.07918167	ที่ หนึ่ง ละ </s>
-0.07918167	ที่ ห้า ละ </s>
-0.07918119	เรา เช็คอิน ล่าสุด ที่	0
-0.06694674	จำนวน แชร์ ล่าสุด ของ	0
-1.447044	ตีน แชร์ ล่าสุด นะ
-1.623135	ตีน แชร์ ล่าสุด ละ
-1.623135	ตีน แชร์ ล่าสุด สิ
-0.3678629	ตีน แชร์ ล่าสุด หน่อย
-1.623135	ตีน แชร์ ล่าสุด หรอ
-1.623135	ตีน แชร์ ล่าสุด อ่ะ
-0.8573326	<s> โพสต์ ล่าสุด คน	-0.02631018
-0.1413292	<s> โพสต์ ล่าสุด มี	4.768372e-07
-0.9542426	<s> โพสต์ ล่าสุด มีคน	0
-0.06694698	ขอ โพสต์ ล่าสุด ของ	0.268846
-0.06694674	เวลา โพสต์ ล่าสุด ของ	0.2688445
-0.06694674	<s> ขอ ศิลปิน ที่	0
-1.181844	คน ที่ สอง </s>
-0.4036922	คน ที่ สอง ชอบ	0
-2.07579	คน ที่ สอง นะ	0
-2.251881	คน ที่ สอง ละ	0
-2.251881	คน ที่ สอง สิ	0
-0.996609	คน ที่ สอง หน่อย	0
-2.251881	คน ที่ สอง หรอ	0
-2.251881	คน ที่ สอง อ่ะ	0
-0.4036922	คน ที่ สอง โพสต์	0
-0.06694674	เพจ ที่ สอง มี	-0.8107941
-0.005990267	โพสต์ ที่ สอง มี	-0.8107998
-0.06694698	ดู เพื่อน สอง คน	-0.01616341
-0.01772881	ของ เพจ สัตว์ โลก	0.09342062
-0.06694674	ที่ เพจ สัตว์ โลก	0.6462614
-1.181844	คน ที่ สาม </s>
-0.4036922	คน ที่ สาม ชอบ	0
-2.07579	คน ที่ สาม นะ	0
-2.251881	คน ที่ สาม ละ	0
-2.251881	คน ที่ สาม สิ	0
-0.996609	คน ที่ สาม หน่อย	0
-2.251881	คน ที่ สาม หรอ	0
-2.251881	คน ที่ สาม อ่ะ	0
-0.4036922	คน ที่ สาม โพสต์	0
-0.06694674	เพจ ที่ สาม มี	-0.8107941
-0.005990267	โพสต์ ที่ สาม มี	-0.8107998
-0.06694698	ดู เพื่อน สาม คน	-0.01616341
-0.07597589	เพื่อน ชอบ สิ </s>
-0.07918119	ที่ สอง สิ </s>
-0.07918119	ที่ สาม สิ </s>
-0.07918072	ที่ สี่ สิ </s>
-0.07918167	ที่ หนึ่ง สิ </s>
-0.07918167	ที่ ห้า สิ </s>
-1.181844	คน ที่ สี่ </s>
-0.4036922	คน ที่ สี่ ชอบ	-7.152557e-06
-2.07579	คน ที่ สี่ นะ	2.384186e-06
-2.251881	คน ที่ สี่ ละ	2.384186e-06
-2.251881	คน ที่ สี่ สิ	2.384186e-06
-0.9966092	คน ที่ สี่ หน่อย	0
-2.251881	คน ที่ สี่ หรอ	2.384186e-06
-2.251881	คน ที่ สี่ อ่ะ	2.384186e-06
-0.4036922	คน ที่ สี่ โพสต์	-7.152557e-06
-0.06694674	เพจ ที่ สี่ มี	-0.8107941
-0.005990267	โพสต์ ที่ สี่ มี	-0.8108047
-0.06694698	ดู เพื่อน สี่ คน	-0.01616341
-0.07918119	<s> ขอ หนังสือ ที่	5.960464e-07
-1.181844	คน ที่ หนึ่ง </s>
-0.4036922	คน ที่ หนึ่ง ชอบ	0
-2.07579	คน ที่ หนึ่ง นะ	-2.384186e-06
-2.251882	คน ที่ หนึ่ง ละ	-2.384186e-06
-2.251882	คน ที่ หนึ่ง สิ	-2.384186e-06
-0.9966092	คน ที่ หนึ่ง หน่อย	0
-2.251882	คน ที่ หนึ่ง หรอ	-2.384186e-06
-2.251882	คน ที่ หนึ่ง อ่ะ	-2.384186e-06
-0.4036922	คน ที่ หนึ่ง โพสต์	0
-0.06694674	เพจ ที่ หนึ่ง มี	-0.8107941
-0.005990267	โพสต์ ที่ หนึ่ง มี	-0.8107998
-0.06694698	ดู เพื่อน หนึ่ง คน	-0.01616371
-0.07597613	เพื่อน ชอบ หน่อย </s>
-0.07918119	ที่ สอง หน่อย </s>
-0.07918119	ที่ สาม หน่อย </s>
-0.07918119	ที่ สี่ หน่อย </s>
-0.07918119	ที่ หนึ่ง หน่อย </s>
-0.07918119	ที่ ห้า หน่อย </s>
-0.3357921	กลับ ไป หน้า เพจ	-0.01616317
-0.3357921	กลับ ไป หน้า เพื่อน	-0.01616317
-0.07597589	เพื่อน ชอบ หรอ </s>
-0.07918119	ที่ สอง หรอ </s>
-0.07918119	ที่ สาม หรอ </s>
-0.07918072	ที่ สี่ หรอ </s>
-0.07918167	ที่ หนึ่ง หรอ </s>
-0.07918167	ที่ ห้า หรอ </s>
-1.181844	คน ที่ ห้า </s>
-0.4036922	คน ที่ ห้า ชอบ	7.152557e-06
-2.07579	คน ที่ ห้า นะ	-2.384186e-06
-2.251882	คน ที่ ห้า ละ	-2.384186e-06
-2.251882	คน ที่ ห้า สิ	-2.384186e-06
-0.9966092	คน ที่ ห้า หน่อย	0
-2.251882	คน ที่ ห้า หรอ	-2.384186e-06
-2.251882	คน ที่ ห้า อ่ะ	-2.384186e-06
-0.4036922	คน ที่ ห้า โพสต์	7.152557e-06
-0.06694698	เพจ ที่ ห้า มี	-0.8107941
-0.005990028	โพสต์ ที่ ห้า มี	-0.8108059
-0.06694698	ดู เพื่อน ห้า คน	-0.01616371
-0.0142405	สัตว์ โลก อม ตีน	4.768372e-07
-0.5328214	มี ความคิดเห็น อะไร </s>
-0.1760912	มี ความคิดเห็น อะไร บ้าง
-0.3770061	แสดง ความรู้สึก อะไร </s>
-0.3770061	แสดง ความรู้สึก อะไร บ้าง
-0.5051498	ชอบ เพจ อะไร </s>
-0.2041202	ชอบ เพจ อะไร บ้าง
-0.2520673	มี โพสต์ อะไร บ้าง
-0.5051498	สอง โพสต์ อะไร </s>
-0.2041197	สอง โพสต์ อะไร บ้าง
-0.5051498	สาม โพสต์ อะไร </s>
-0.2041197	สาม โพสต์ อะไร บ้าง
-0.5051498	สี่ โพสต์ อะไร </s>
-0.2041197	สี่ โพสต์ อะไร บ้าง
-0.5051498	หนึ่ง โพสต์ อะไร </s>
-0.2041202	หนึ่ง โพสต์ อะไร บ้าง
-0.5051498	ห้า โพสต์ อะไร </s>
-0.2041202	ห้า โพสต์ อะไร บ้าง
-0.774946	เรา โพสต์ อะไร </s>
-0.774946	เรา โพสต์ อะไร บ้าง
-0.5785789	เรา โพสต์ อะไร ล่าสุด
-0.774946	เรา โพสต์ อะไร ไป
-0.07918119	เพื่อน ใช้ อะไร เล่น	0.3800333
-0.07597589	เพื่อน ชอบ อ่ะ </s>
-0.07918119	ที่ สอง อ่ะ </s>
-0.07918119	ที่ สาม อ่ะ </s>
-0.07918072	ที่ สี่ อ่ะ </s>
-0.07918167	ที่ หนึ่ง อ่ะ </s>
-0.07918167	ที่ ห้า อ่ะ </s>
-0.07918119	<s> เรา เช็คอิน ล่าสุด	5.960464e-07
-0.07597613	คน แชร์ เท่าไหร่ </s>
-0.06694674	<s> ขอ เพจ ที่	-1.430511e-06
-0.06694674	ถูกใจ ของ เพจ สัตว์	0.5528408
-0.02348113	ล่าสุด ของ เพจ สัตว์	0.1191862
-0.01424026	สอง ชอบ เพจ อะไร	0
-0.01424026	สาม ชอบ เพจ อะไร	0
-0.01424026	สี่ ชอบ เพจ อะไร	0
-0.01424026	หนึ่ง ชอบ เพจ อะไร	0
-0.01424026	ห้า ชอบ เพจ อะไร	0
-1.447044	จำนวน ถูกใจ เพจ นะ
-1.623135	จำนวน ถูกใจ เพจ ละ
-1.623135	จำนวน ถูกใจ เพจ สิ
-0.3678629	จำนวน ถูกใจ เพจ หน่อย
-1.623135	จำนวน ถูกใจ เพจ หรอ
-1.623135	จำนวน ถูกใจ เพจ อ่ะ
-0.06694674	โพสต์ ที่ เพจ สัตว์	0
-1.447044	ไป หน้า เพจ นะ
-1.623135	ไป หน้า เพจ ละ
-1.623135	ไป หน้า เพจ สิ
-0.3678629	ไป หน้า เพจ หน่อย
-1.623135	ไป หน้า เพจ หรอ
-1.623135	ไป หน้า เพจ อ่ะ
-0.09108067	ขอ ดู เพื่อน ของ	0
-1.411417	ขอ ดู เพื่อน สอง	0
-1.411417	ขอ ดู เพื่อน สาม	0
-1.753837	ขอ ดู เพื่อน สี่	0
-1.355898	ขอ ดู เพื่อน หนึ่ง	0
-1.639896	ขอ ดู เพื่อน ห้า	0
-0.06694674	ศิลปิน ที่ เพื่อน ชอบ	0.1047354
-0.07918119	หนังสือ ที่ เพื่อน ชอบ	0.1047355
-1.447044	ไป หน้า เพื่อน นะ
-1.623135	ไป หน้า เพื่อน ละ
-1.623135	ไป หน้า เพื่อน สิ
-0.3678629	ไป หน้า เพื่อน หน่อย
-1.623135	ไป หน้า เพื่อน หรอ
-1.623135	ไป หน้า เพื่อน อ่ะ
-0.35673	เพจ ที่ เรา ชอบ
-0.35673	เพจ ที่ เรา ถูกใจ	-0.01616341
-0.2775488	ใช้ อะไร เล่น เฟซ
-0.4739161	ใช้ อะไร เล่น เฟซบุค
-0.06694674	<s> ขอ เวลา โพสต์	0
-0.3424227	มี คน แชร์ กี่	0.0669468
-0.3424227	มี คน แชร์ เท่าไหร่
-0.06694698	ขอ จำนวน แชร์ ล่าสุด	1.430511e-06
-0.06694674	อม ตีน แชร์ ล่าสุด	-0.01616326
-0.4168255	มี คน แสดง ความคิดเห็น	0
-0.2249398	มี คน แสดง ความรู้สึก	0.02896011
-0.07597613	ล่าสุด คน แสดง ความรู้สึก
-0.3357921	<s> ขอ โพสต์ ที่	-1.430511e-06
-0.3357921	<s> ขอ โพสต์ ล่าสุด	-1.430511e-06
-0.06694698	สอง มี โพสต์ อะไร	-0.01616329
-0.06694698	สาม มี โพสต์ อะไร	-0.01616329
-0.06694698	สี่ มี โพสต์ อะไร	-0.01616329
-0.06694698	หนึ่ง มี โพสต์ อะไร	-0.01616329
-0.06694698	ห้า มี โพสต์ อะไร	-0.01616329
-0.0142405	ที่ สอง โพสต์ อะไร	2.384186e-06
-0.0142405	ที่ สาม โพสต์ อะไร	2.384186e-06
-0.01424074	ที่ สี่ โพสต์ อะไร	4.768372e-06
-0.0142405	ที่ หนึ่ง โพสต์ อะไร	-1.192093e-06
-0.01424026	ที่ ห้า โพสต์ อะไร	0
-0.03778863	<s> เรา โพสต์ อะไร	0.0354383
-0.06694674	ขอ เวลา โพสต์ ล่าสุด	0
-0.0142405	เพจ สัตว์ โลก อม	0
-0.07918119	<s> เพื่อน ใช้ อะไร	5.960464e-07
-0.03476214	<s> กลับ ไป หน้า	0

\5-grams:
-0.02348113	คน แสดง ความคิดเห็น กี่ คน
-0.01772881	คน แสดง ความรู้สึก กี่ คน
-0.0222764	มี คน ถูกใจ กี่ คน
-0.09691	ล่าสุด มีคน ถูกใจ กี่ คน
-0.07918119	มี คน แชร์ กี่ คน
-0.06694674	ขอ จำนวน ถูกใจ ของ เพจ
-0.06694674	จำนวน แชร์ ล่าสุด ของ เพจ
-0.06694698	ขอ โพสต์ ล่าสุด ของ เพจ
-0.06694674	เวลา โพสต์ ล่าสุด ของ เพจ
-0.01424026	ขอ ดู เพื่อน ของ คน
-0.5642715	แสดง ความคิดเห็น กี่ คน </s>
-0.5642715	แสดง ความคิดเห็น กี่ คน แล้ว
-0.2041199	แสดง ความรู้สึก กี่ คน </s>
-0.6892102	แสดง ความรู้สึก กี่ คน แล้ว
-0.2430379	คน ถูกใจ กี่ คน </s>
-0.6312182	คน ถูกใจ กี่ คน แล้ว
-0.06366897	คน แชร์ กี่ คน </s>
-0.01424026	ดู เพื่อน ของ คน ที่
-1.105062	โพสต์ ล่าสุด มี คน ถูกใจ
-0.3424227	โพสต์ ล่าสุด มี คน แชร์
-0.3424227	โพสต์ ล่าสุด มี คน แสดง
-0.4850903	ที่ สอง มี คน ถูกใจ
-0.1840601	ที่ สอง มี คน แสดง
-0.4850903	ที่ สาม มี คน ถูกใจ
-0.1840601	ที่ สาม มี คน แสดง
-0.4850903	ที่ สี่ มี คน ถูกใจ
-0.1840601	ที่ สี่ มี คน แสดง
-0.4850903	ที่ หนึ่ง มี คน ถูกใจ
-0.1840601	ที่ หนึ่ง มี คน แสดง
-0.4850903	ที่ ห้า มี คน ถูกใจ
-0.1840601	ที่ ห้า มี คน แสดง
-0.4616091	<s> โพสต์ ล่าสุด คน แชร์
-0.4616091	<s> โพสต์ ล่าสุด คน แสดง
-1.434737	ดู เพื่อน สอง คน นะ
-1.610828	ดู เพื่อน สอง คน ละ
-1.610828	ดู เพื่อน สอง คน สิ
-0.355556	ดู เพื่อน สอง คน หน่อย
-1.610828	ดู เพื่อน สอง คน หรอ
-1.610828	ดู เพื่อน สอง คน อ่ะ
-1.434737	ดู เพื่อน สาม คน นะ
-1.610828	ดู เพื่อน สาม คน ละ
-1.610828	ดู เพื่อน สาม คน สิ
-0.355556	ดู เพื่อน สาม คน หน่อย
-1.610828	ดู เพื่อน สาม คน หรอ
-1.610828	ดู เพื่อน สาม คน อ่ะ
-1.434737	ดู เพื่อน สี่ คน นะ
-1.610828	ดู เพื่อน สี่ คน ละ
-1.610828	ดู เพื่อน สี่ คน สิ
-0.355556	ดู เพื่อน สี่ คน หน่อย
-1.610828	ดู เพื่อน สี่ คน หรอ
-1.610828	ดู เพื่อน สี่ คน อ่ะ
-1.434737	ดู เพื่อน หนึ่ง คน นะ
-1.610828	ดู เพื่อน หนึ่ง คน ละ
-1.610828	ดู เพื่อน หนึ่ง คน สิ
-0.355556	ดู เพื่อน หนึ่ง คน หน่อย
-1.610828	ดู เพื่อน หนึ่ง คน หรอ
-1.610828	ดู เพื่อน หนึ่ง คน อ่ะ
-1.434737	ดู เพื่อน ห้า คน นะ
-1.610828	ดู เพื่อน ห้า คน ละ
-1.610828	ดู เพื่อน ห้า คน สิ
-0.355556	ดู เพื่อน ห้า คน หน่อย
-1.610828	ดู เพื่อน ห้า คน หรอ
-1.610828	ดู เพื่อน ห้า คน อ่ะ
-0.02348113	ที่ สอง มี ความคิดเห็น อะไร
-0.02348113	ที่ สาม มี ความคิดเห็น อะไร
-0.02348089	ที่ สี่ มี ความคิดเห็น อะไร
-0.02348113	ที่ หนึ่ง มี ความคิดเห็น อะไร
-0.02348089	ที่ ห้า มี ความคิดเห็น อะไร
-0.02348113	มี คน แสดง ความคิดเห็น กี่
-0.1006701	มี คน แสดง ความรู้สึก กี่
-0.763428	มี คน แสดง ความรู้สึก อะไร
-0.06694674	<s> ขอ ดู จำนวน ถูกใจ
-0.0142405	คน ที่ สอง ชอบ เพจ
-0.0142405	คน ที่ สาม ชอบ เพจ
-0.0142405	คน ที่ สี่ ชอบ เพจ
-0.0142405	คน ที่ หนึ่ง ชอบ เพจ
-0.0142405	คน ที่ ห้า ชอบ เพจ
-1.434737	ศิลปิน ที่ เพื่อน ชอบ นะ
-1.610828	ศิลปิน ที่ เพื่อน ชอบ ละ
-1.610828	ศิลปิน ที่ เพื่อน ชอบ สิ
-0.355556	ศิลปิน ที่ เพื่อน ชอบ หน่อย
-1.610828	ศิลปิน ที่ เพื่อน ชอบ หรอ
-1.610828	ศิลปิน ที่ เพื่อน ชอบ อ่ะ
-1.434737	หนังสือ ที่ เพื่อน ชอบ นะ
-1.610828	หนังสือ ที่ เพื่อน ชอบ ละ
-1.610828	หนังสือ ที่ เพื่อน ชอบ สิ
-0.355556	หนังสือ ที่ เพื่อน ชอบ หน่อย
-1.610828	หนังสือ ที่ เพื่อน ชอบ หรอ
-1.610828	หนังสือ ที่ เพื่อน ชอบ อ่ะ
-0.6766937	สัตว์ โลก อม ตีน </s>
-1.57064	สัตว์ โลก อม ตีน นะ
-1.746731	สัตว์ โลก อม ตีน ละ
-1.746731	สัตว์ โลก อม ตีน สิ
-0.4914591	สัตว์ โลก อม ตีน หน่อย
-1.746731	สัตว์ โลก อม ตีน หรอ
-1.746731	สัตว์ โลก อม ตีน อ่ะ
-0.5006025	สัตว์ โลก อม ตีน แชร์
-0.02348089	สอง มี คน ถูกใจ กี่
-0.02348089	สาม มี คน ถูกใจ กี่
-0.02348089	สี่ มี คน ถูกใจ กี่
-0.02348089	หนึ่ง มี คน ถูกใจ กี่
-0.02348089	ห้า มี คน ถูกใจ กี่
-0.06694674	<s> ขอ จำนวน ถูกใจ ของ
-0.06694698	ขอ ดู จำนวน ถูกใจ เพจ
-0.09691	โพสต์ ล่าสุด มี ถูกใจ เท่าไหร่
-0.09691	โพสต์ ล่าสุด มีคน ถูกใจ กี่
-1.434737	เพจ ที่ เรา ถูกใจ นะ
-1.610828	เพจ ที่ เรา ถูกใจ ละ
-1.610828	เพจ ที่ เรา ถูกใจ สิ
-0.355556	เพจ ที่ เรา ถูกใจ หน่อย
-1.610828	เพจ ที่ เรา ถูกใจ หรอ
-1.610828	เพจ ที่ เรา ถูกใจ อ่ะ
-0.6356063	เพื่อน ของ คน ที่ สอง
-0.6356063	เพื่อน ของ คน ที่ สาม
-0.9780269	เพื่อน ของ คน ที่ สี่
-0.5800886	เพื่อน ของ คน ที่ หนึ่ง
-0.8640862	เพื่อน ของ คน ที่ ห้า
-0.07918119	เรา เช็คอิน ล่าสุด ที่ ไหน
-0.06694674	<s> ขอ ศิลปิน ที่ เพื่อน
-0.07918131	<s> ขอ หนังสือ ที่ เพื่อน
-0.06694674	<s> ขอ เพจ ที่ เรา
-0.06694674	<s> ขอ โพสต์ ที่ เพจ
-0.06366897	ที่ เพื่อน ชอบ นะ </s>
-0.07918119	คน ที่ สอง นะ </s>
-0.07918119	คน ที่ สาม นะ </s>
-0.07918119	คน ที่ สี่ นะ </s>
-0.07918119	คน ที่ หนึ่ง นะ </s>
-0.07918119	คน ที่ ห้า นะ </s>
-0.0889411	<s> โพสต์ ล่าสุด มี คน
-0.8293039	<s> โพสต์ ล่าสุด มี ถูกใจ
-0.06694674	เพจ ที่ สอง มี โพสต์
-0.130929	โพสต์ ที่ สอง มี คน
-0.6080503	โพสต์ ที่ สอง มี ความคิดเห็น
-0.06694674	เพจ ที่ สาม มี โพสต์
-0.130929	โพสต์ ที่ สาม มี คน
-0.6080503	โพสต์ ที่ สาม มี ความคิดเห็น
-0.06694674	เพจ ที่ สี่ มี โพสต์
-0.130929	โพสต์ ที่ สี่ มี คน
-0.6080501	โพสต์ ที่ สี่ มี ความคิดเห็น
-0.06694674	เพจ ที่ หนึ่ง มี โพสต์
-0.130929	โพสต์ ที่ หนึ่ง มี คน
-0.6080503	โพสต์ ที่ หนึ่ง มี ความคิดเห็น
-0.06694674	เพจ ที่ ห้า มี โพสต์
-0.130929	โพสต์ ที่ ห้า มี คน
-0.6080501	โพสต์ ที่ ห้า มี ความคิดเห็น
-0.09691	<s> โพสต์ ล่าสุด มีคน ถูกใจ
-0.06366897	ที่ เพื่อน ชอบ ละ </s>
-0.07918119	คน ที่ สอง ละ </s>
-0.07918119	คน ที่ สาม ละ </s>
-0.07918119	คน ที่ สี่ ละ </s>
-0.07918119	คน ที่ หนึ่ง ละ </s>
-0.07918119	คน ที่ ห้า ละ </s>
-0.07918131	<s> เรา เช็คอิน ล่าสุด ที่
-0.06694698	ขอ จำนวน แชร์ ล่าสุด ของ
-1.434737	อม ตีน แชร์ ล่าสุด นะ
-1.610828	อม ตีน แชร์ ล่าสุด ละ
-1.610828	อม ตีน แชร์ ล่าสุด สิ
-0.355556	อม ตีน แชร์ ล่าสุด หน่อย
-1.610828	อม ตีน แชร์ ล่าสุด หรอ
-1.610828	อม ตีน แชร์ ล่าสุด อ่ะ
-0.06694674	<s> ขอ โพสต์ ล่าสุด ของ
-0.06694674	ขอ เวลา โพสต์ ล่าสุด ของ
-0.3082086	<s> คน ที่ สอง ชอบ
-0.3082086	<s> คน ที่ สอง โพสต์
-0.5051498	ของ คน ที่ สอง </s>
-1.399097	ของ คน ที่ สอง นะ
-1.575188	ของ คน ที่ สอง ละ
-1.575188	ของ คน ที่ สอง สิ
-0.3199158	ของ คน ที่ สอง หน่อย
-1.575188	ของ คน ที่ สอง หรอ
-1.575188	ของ คน ที่ สอง อ่ะ
-0.06694674	<s> เพจ ที่ สอง มี
-0.005990386	<s> โพสต์ ที่ สอง มี
-0.06694698	ขอ ดู เพื่อน สอง คน
-0.06694674	ถูกใจ ของ เพจ สัตว์ โลก
-0.02348113	ล่าสุด ของ เพจ สัตว์ โลก
-0.06694674	โพสต์ ที่ เพจ สัตว์ โลก
-0.3082086	<s> คน ที่ สาม ชอบ
-0.3082086	<s> คน ที่ สาม โพสต์
-0.5051498	ของ คน ที่ สาม </s>
-1.399097	ของ คน ที่ สาม นะ
-1.575188	ของ คน ที่ สาม ละ
-1.575188	ของ คน ที่ สาม สิ
-0.3199158	ของ คน ที่ สาม หน่อย
-1.575188	ของ คน ที่ สาม หรอ
-1.575188	ของ คน ที่ สาม อ่ะ
-0.06694674	<s> เพจ ที่ สาม มี
-0.005990386	<s> โพสต์ ที่ สาม มี
-0.06694698	ขอ ดู เพื่อน สาม คน
-0.06366897	ที่ เพื่อน ชอบ สิ </s>
-0.07918119	คน ที่ สอง สิ </s>
-0.07918119	คน ที่ สาม สิ </s>
-0.07918119	คน ที่ สี่ สิ </s>
-0.07918119	คน ที่ หนึ่ง สิ </s>
-0.07918119	คน ที่ ห้า สิ </s>
-0.3082086	<s> คน ที่ สี่ ชอบ
-0.3082086	<s> คน ที่ สี่ โพสต์
-0.5051498	ของ คน ที่ สี่ </s>
-1.399097	ของ คน ที่ สี่ นะ
-1.575188	ของ คน ที่ สี่ ละ
-1.575188	ของ คน ที่ สี่ สิ
-0.3199158	ของ คน ที่ สี่ หน่อย
-1.575188	ของ คน ที่ สี่ หรอ
-1.575188	ของ คน ที่ สี่ อ่ะ
-0.06694674	<s> เพจ ที่ สี่ มี
-0.005990386	<s> โพสต์ ที่ สี่ มี
-0.06694698	ขอ ดู เพื่อน สี่ คน
-0.3082086	<s> คน ที่ หนึ่ง ชอบ
-0.3082086	<s> คน ที่ หนึ่ง โพสต์
-0.5051498	ของ คน ที่ หนึ่ง </s>
-1.399096	ของ คน ที่ หนึ่ง นะ
-1.575188	ของ คน ที่ หนึ่ง ละ
-1.575188	ของ คน ที่ หนึ่ง สิ
-0.3199158	ของ คน ที่ หนึ่ง หน่อย
-1.575188	ของ คน ที่ หนึ่ง หรอ
-1.575188	ของ คน ที่ หนึ่ง อ่ะ
-0.06694674	<s> เพจ ที่ หนึ่ง มี
-0.005990386	<s> โพสต์ ที่ หนึ่ง มี
-0.06694698	ขอ ดู เพื่อน หนึ่ง คน
-0.06366897	ที่ เพื่อน ชอบ หน่อย </s>
-0.07918119	คน ที่ สอง หน่อย </s>
-0.07918119	คน ที่ สาม หน่อย </s>
-0.07918119	คน ที่ สี่ หน่อย </s>
-0.07918119	คน ที่ หนึ่ง หน่อย </s>
-0.07918119	คน ที่ ห้า หน่อย </s>
-0.3357921	<s> กลับ ไป หน้า เพจ
-0.3357921	<s> กลับ ไป หน้า เพื่อน
-0.06366897	ที่ เพื่อน ชอบ หรอ </s>
-0.07918119	คน ที่ สอง หรอ </s>
-0.07918119	คน ที่ สาม หรอ </s>
-0.07918119	คน ที่ สี่ หรอ </s>
-0.07918119	คน ที่ หนึ่ง หรอ </s>
-0.07918119	คน ที่ ห้า หรอ </s>
-0.3082086	<s> คน ที่ ห้า ชอบ
-0.3082086	<s> คน ที่ ห้า โพสต์
-0.5051498	ของ คน ที่ ห้า </s>
-1.399096	ของ คน ที่ ห้า นะ
-1.575188	ของ คน ที่ ห้า ละ
-1.575188	ของ คน ที่ ห้า สิ
-0.3199158	ของ คน ที่ ห้า หน่อย
-1.575188	ของ คน ที่ ห้า หรอ
-1.575188	ของ คน ที่ ห้า อ่ะ
-0.06694674	<s> เพจ ที่ ห้า มี
-0.005990386	<s> โพสต์ ที่ ห้า มี
-0.06694698	ขอ ดู เพื่อน ห้า คน
-0.0142405	เพจ สัตว์ โลก อม ตีน
-0.7403626	สอง มี ความคิดเห็น อะไร </s>
-0.1760912	สอง มี ความคิดเห็น อะไร บ้าง
-0.7403626	สาม มี ความคิดเห็น อะไร </s>
-0.1760912	สาม มี ความคิดเห็น อะไร บ้าง
-0.7403626	สี่ มี ความคิดเห็น อะไร </s>
-0.1760912	สี่ มี ความคิดเห็น อะไร บ้าง
-0.7403626	หนึ่ง มี ความคิดเห็น อะไร </s>
-0.1760912	หนึ่ง มี ความคิดเห็น อะไร บ้าง
-0.7403626	ห้า มี ความคิดเห็น อะไร </s>
-0.1760912	ห้า มี ความคิดเห็น อะไร บ้าง
-0.3646991	คน แสดง ความรู้สึก อะไร </s>
-0.3646991	คน แสดง ความรู้สึก อะไร บ้าง
-0.5051498	สอง ชอบ เพจ อะไร </s>
-0.2041202	สอง ชอบ เพจ อะไร บ้าง
-0.5051498	สาม ชอบ เพจ อะไร </s>
-0.2041202	สาม ชอบ เพจ อะไร บ้าง
-0.5051498	สี่ ชอบ เพจ อะไร </s>
-0.2041202	สี่ ชอบ เพจ อะไร บ้าง
-0.5051498	หนึ่ง ชอบ เพจ อะไร </s>
-0.2041202	หนึ่ง ชอบ เพจ อะไร บ้าง
-0.5051498	ห้า ชอบ เพจ อะไร </s>
-0.2041202	ห้า ชอบ เพจ อะไร บ้าง
-0.2397604	สอง มี โพสต์ อะไร บ้าง
-0.2397604	สาม มี โพสต์ อะไร บ้าง
-0.2397604	สี่ มี โพสต์ อะไร บ้าง
-0.2397604	หนึ่ง มี โพสต์ อะไร บ้าง
-0.2397604	ห้า มี โพสต์ อะไร บ้าง
-0.5051498	ที่ สอง โพสต์ อะไร </s>
-0.2041199	ที่ สอง โพสต์ อะไร บ้าง
-0.5051498	ที่ สาม โพสต์ อะไร </s>
-0.2041199	ที่ สาม โพสต์ อะไร บ้าง
-0.5051498	ที่ สี่ โพสต์ อะไร </s>
-0.2041202	ที่ สี่ โพสต์ อะไร บ้าง
-0.5051501	ที่ หนึ่ง โพสต์ อะไร </s>
-0.2041199	ที่ หนึ่ง โพสต์ อะไร บ้าง
-0.5051498	ที่ ห้า โพสต์ อะไร </s>
-0.2041202	ที่ ห้า โพสต์ อะไร บ้าง
-0.7168815	<s> เรา โพสต์ อะไร บ้าง
-0.7403626	<s> เรา โพสต์ อะไร ล่าสุด
-0.7168815	<s> เรา โพสต์ อะไร ไป
-0.07918131	<s> เพื่อน ใช้ อะไร เล่น
-0.06366897	ที่ เพื่อน ชอบ อ่ะ </s>
-0.07918119	คน ที่ สอง อ่ะ </s>
-0.07918119	คน ที่ สาม อ่ะ </s>
-0.07918119	คน ที่ สี่ อ่ะ </s>
-0.07918119	คน ที่ หนึ่ง อ่ะ </s>
-0.07918119	คน ที่ ห้า อ่ะ </s>
-0.06694674	จำนวน ถูกใจ ของ เพจ สัตว์
-0.06694674	แชร์ ล่าสุด ของ เพจ สัตว์
-0.03476214	โพสต์ ล่าสุด ของ เพจ สัตว์
-0.0142405	ที่ สอง ชอบ เพจ อะไร
-0.0142405	ที่ สาม ชอบ เพจ อะไร
-0.01424026	ที่ สี่ ชอบ เพจ อะไร
-0.0142405	ที่ หนึ่ง ชอบ เพจ อะไร
-0.01424026	ที่ ห้า ชอบ เพจ อะไร
-1.434737	ดู จำนวน ถูกใจ เพจ นะ
-1.610828	ดู จำนวน ถูกใจ เพจ ละ
-1.610828	ดู จำนวน ถูกใจ เพจ สิ
-0.355556	ดู จำนวน ถูกใจ เพจ หน่อย
-1.610828	ดู จำนวน ถูกใจ เพจ หรอ
-1.610828	ดู จำนวน ถูกใจ เพจ อ่ะ
-0.06694698	ขอ โพสต์ ที่ เพจ สัตว์
-1.434737	กลับ ไป หน้า เพจ นะ
-1.610828	กลับ ไป หน้า เพจ ละ
-1.610828	กลับ ไป หน้า เพจ สิ
-0.355556	กลับ ไป หน้า เพจ หน่อย
-1.610828	กลับ ไป หน้า เพจ หรอ
-1.610828	กลับ ไป หน้า เพจ อ่ะ
-0.09108043	<s> ขอ ดู เพื่อน ของ
-1.411416	<s> ขอ ดู เพื่อน สอง
-1.411416	<s> ขอ ดู เพื่อน สาม
-1.753837	<s> ขอ ดู เพื่อน สี่
-1.355898	<s> ขอ ดู เพื่อน หนึ่ง
-1.639896	<s> ขอ ดู เพื่อน ห้า
-0.06694674	ขอ ศิลปิน ที่ เพื่อน ชอบ
-0.07918119	ขอ หนังสือ ที่ เพื่อน ชอบ
-1.434737	กลับ ไป หน้า เพื่อน นะ
-1.610828	กลับ ไป หน้า เพื่อน ละ
-1.610828	กลับ ไป หน้า เพื่อน สิ
-0.355556	กลับ ไป หน้า เพื่อน หน่อย
-1.610828	กลับ ไป หน้า เพื่อน หรอ
-1.610828	กลับ ไป หน้า เพื่อน อ่ะ
-0.5642715	ขอ เพจ ที่ เรา ชอบ
-0.5642715	ขอ เพจ ที่ เรา ถูกใจ
-0.4850903	เพื่อน ใช้ อะไร เล่น เฟซ
-0.4616091	เพื่อน ใช้ อะไร เล่น เฟซบุค
-0.3424227	ล่าสุด มี คน แชร์ กี่
-0.3424227	ล่าสุด มี คน แชร์ เท่าไหร่
-0.06694674	<s> ขอ จำนวน แชร์ ล่าสุด
-0.06694674	โลก อม ตีน แชร์ ล่าสุด
-0.04139256	ล่าสุด มี คน แสดง ความรู้สึก
-0.3129292	สอง มี คน แสดง ความคิดเห็น
-0.3129292	สอง มี คน แสดง ความรู้สึก
-0.3129292	สาม มี คน แสดง ความคิดเห็น
-0.3129292	สาม มี คน แสดง ความรู้สึก
-0.3129292	สี่ มี คน แสดง ความคิดเห็น
-0.3129292	สี่ มี คน แสดง ความรู้สึก
-0.3129292	หนึ่ง มี คน แสดง ความคิดเห็น
-0.3129292	หนึ่ง มี คน แสดง ความรู้สึก
-0.3129292	ห้า มี คน แสดง ความคิดเห็น
-0.3129292	ห้า มี คน แสดง ความรู้สึก
-0.06366897	โพสต์ ล่าสุด คน แสดง ความรู้สึก
-0.06694698	ที่ สอง มี โพสต์ อะไร
-0.06694698	ที่ สาม มี โพสต์ อะไร
-0.06694698	ที่ สี่ มี โพสต์ อะไร
-0.06694698	ที่ หนึ่ง มี โพสต์ อะไร
-0.06694698	ที่ ห้า มี โพสต์ อะไร
-0.0142405	คน ที่ สอง โพสต์ อะไร
-0.0142405	คน ที่ สาม โพสต์ อะไร
-0.0142405	คน ที่ สี่ โพสต์ อะไร
-0.0142405	คน ที่ หนึ่ง โพสต์ อะไร
-0.0142405	คน ที่ ห้า โพสต์ อะไร
-0.06694674	<s> ขอ เวลา โพสต์ ล่าสุด
-0.01772881	ของ เพจ สัตว์ โลก อม
-0.06694674	ที่ เพจ สัตว์ โลก อม

\end\
