
\data\
ngram 1=35
ngram 2=118
ngram 3=108
ngram 4=92
ngram 5=62

\1-grams:
-0.841433	</s>
-99	<s>	-1.552137
-1.469822	กี่	-2.350511
-2.071882	ขอ	-1.105655
-1.594761	ของ	-0.8970677
-1.469822	คน	-1.574155
-1.594761	ความคิดเห็น	-0.8461484
-1.770852	จำนวน	-0.8301209
-1.770852	ชอบ	-0.7279179
-2.071882	ดู	-1.079998
-1.469822	ถูกใจ	-0.8475448
-1.372912	ที	-1.274862
-1.226784	ที่	-1.556609
-1.770852	นะ	-0.973832
-1.770852	บ้าง	-1.394837
-1.594761	มี	-1.153427
-2.071882	ละ	-1.394837
-1.594761	ล่าสุด	-0.5257157
-1.594761	สิ	-1.136559
-1.770852	หนังสือ	-0.5472113
-1.469822	หน่อย	-0.973832
-1.770852	หรอ	-0.973832
-1.372912	อะ	-1.758514
-1.226784	อะไร	-0.8371748
-1.770852	เช็คอิน	-0.2890899
-1.372912	เพจ	-0.9052696
-1.469822	เพื่อน	-1.065393
-2.071882	เฟซ	-0.2898458
-1.594761	เรา	-0.6884567
-1.770852	เล่น	-1.338727
-1.770852	แชร์	-0.9534239
-1.168792	โพสต์	-2.208696
-2.071882	ใช้	-0.8501511
-2.071882	ไป	-0.293606
-1.770852	ไหน	-0.6904213

\2-grams:
-0.6041983	<s> ขอ	0
-1.428107	<s> คน	-0.07328473
-1.905228	<s> ความคิดเห็น
-1.428107	<s> ที่	-0.6745393
-1.303168	<s> มี	-0.611268
-1.428107	<s> อะไร	-0.8038977
-0.9052283	<s> เพจ	-1.096032
-0.8260471	<s> เพื่อน	-0.4789925
-0.8638356	<s> เรา	-0.6545697
-0.8260471	<s> โพสต์	-1.475736
-0.001876005	กี่ คน	-0.8275167
-1.031408	ขอ ความคิดเห็น	-0.3542755
-1.031408	ขอ จำนวน	0.243038
-0.4293485	ขอ ดู	0
-1.031408	ขอ หนังสือ	-0.39794
-0.5542872	ขอ เพจ	-1.24221
-0.6851268	ของ เพจ	-0.2031789
-0.861218	ของ เพื่อน
-0.463278	ของ เรา	-0.05693594
-0.6851268	ของ โพสต์	-0.4232072
-0.4746617	คน </s>
-0.5094238	คน ถูกใจ	-0.6644936
-0.743507	คน ละ	0
-1.588605	คน อะ
-0.889635	คน แชร์	0.2466723
-0.3617278	ความคิดเห็น ของ	-0.7446572
-0.3617278	ความคิดเห็น อะไร	-0.1473604
-0.06694679	จำนวน ถูกใจ	-0.7791026
-0.9087671	ชอบ </s>
-0.9087671	ชอบ ที	0.7403627
-0.9087671	ชอบ สิ	0.60206
-0.9087671	ชอบ หนังสือ	-0.39794
-0.4316459	ชอบ เพจ	-1.24221
-0.9388055	ดู จำนวน
-0.0937075	ดู เพื่อน	-1.347165
-0.3737291	ถูกใจ กี่	0.7027302
-0.8508503	ถูกใจ ของ	-0.7446572
-1.327972	ถูกใจ ที
-1.327972	ถูกใจ หน่อย
-1.026942	ถูกใจ เพจ	-0.5711557
-0.8508503	ถูกใจ โพสต์	-0.4232072
-0.02020339	ที </s>
-0.4884023	ที่ เพื่อน	-0.3507195
-0.4884023	ที่ เรา	-0.3288072
-0.4884023	ที่ ไหน	0.07528466
-0.04139268	นะ </s>
-0.01523997	บ้าง </s>
-0.2016454	มี คน	-1.175417
-0.8037053	มี ความคิดเห็น	-0.5973135
-1.280827	มี อะไร
-0.9797966	มี โพสต์	-0.3994125
-0.01523997	ละ </s>
-1.424264	ล่าสุด </s>
-0.7252942	ล่าสุด กี่	1.161368
-1.123234	ล่าสุด คน
-1.123234	ล่าสุด ถูกใจ	-0.3632868
-1.424264	ล่าสุด ที
-1.424264	ล่าสุด ที่
-0.5791662	ล่าสุด มี	0.1586219
-1.424264	ล่าสุด หน่อย
-1.123234	ล่าสุด แชร์	-0.154902
-0.02802872	สิ </s>
-0.4259687	หนังสือ ที่	-0.4315013
-0.4259687	หนังสือ อะไร
-0.04139268	หน่อย </s>
-0.04139268	หรอ </s>
-0.006530867	อะ </s>
-0.8214723	อะไร </s>
-1.043321	อะไร ที่	-0.6745393
-1.043321	อะไร นะ	0.1962947
-0.742291	อะไร บ้าง	0.1199753
-1.520442	อะไร ล่าสุด
-1.219412	อะไร หรอ	0.4393327
-0.742291	อะไร อะ	0.4836521
-1.043321	อะไร เล่น	0.4973247
-1.520442	อะไร ไป
-0.7998705	เช็คอิน </s>
-0.6237792	เช็คอิน ที่	-0.6745393
-1.100901	เช็คอิน ล่าสุด
-1.100901	เช็คอิน อะ
-1.100901	เช็คอิน ไหน
-1.163126	เพจ </s>
-1.163126	เพจ กี่	1.763428
-0.6860051	เพจ ที่	-1.171864
-0.6190583	เพจ มี	-0.4259687
-1.464156	เพจ สิ
-0.6860051	เพจ อะไร	-0.4269296
-0.987035	เพจ โพสต์	-0.6424505
-0.6325493	เพื่อน ของ	-0.714513
-0.6325493	เพื่อน ชอบ	0.002082974
-1.477647	เพื่อน ที
-1.477647	เพื่อน หน่อย
-0.8755873	เพื่อน เช็คอิน
-1.176617	เพื่อน โพสต์	-0.3994125
-0.6994961	เพื่อน ใช้	0
-1	เฟซ </s>
-1	เฟซ นะ
-0.69897	เฟซ หรอ	0.4393327
-0.69897	เฟซ อะ	1.224015
-1.420594	เรา </s>
-0.5754964	เรา ชอบ	0.002082974
-1.119565	เรา ถูกใจ
-1.420594	เรา ที
-1.119565	เรา สิ	0.60206
-1.420594	เรา หน่อย
-0.8185345	เรา เช็คอิน	-0.01828592
-0.7216245	เรา โพสต์	-1.001472
-0.02020339	เล่น เฟซ	0
-0.1918855	แชร์ กี่	1.161368
-0.5898255	แชร์ โพสต์	-0.1801692
-0.2065852	โพสต์ ล่าสุด	-0.1736086
-0.428434	โพสต์ อะไร	-0.04666752
-0.3617278	ใช้ อะไร	-0.8038977
-0.3617278	ใช้ เล่น	0.4973247
-0.30103	ไป บ้าง
-0.3735807	ไหน </s>
-0.4985194	ไหน ที่	-0.06352444
-0.9756407	ไหน อะ

\3-grams:
-0.009545318	ถูกใจ กี่ คน	0.4892194
-0.02802872	ล่าสุด กี่ คน	-0.06562039
-0.1249387	เพจ กี่ คน
-0.02802872	แชร์ กี่ คน	0.3891041
-1.031408	<s> ขอ ความคิดเห็น	0
-1.031408	<s> ขอ จำนวน	0
-0.4293485	<s> ขอ ดู	0
-1.031408	<s> ขอ หนังสือ	0
-0.5542872	<s> ขอ เพจ	0
-0.06694679	ความคิดเห็น ของ โพสต์	0
-0.06694679	ถูกใจ ของ เพจ	0
-0.5898255	เพื่อน ของ เพื่อน
-0.1918855	เพื่อน ของ เรา	0
-0.3802112	<s> คน ถูกใจ	-0.4877144
-0.219557	กี่ คน </s>
-0.4884023	กี่ คน ละ	0
-0.141538	มี คน ถูกใจ	-0.1383027
-0.6186593	มี คน แชร์	0.06186727
-0.1249387	ขอ ความคิดเห็น ของ	0.243038
-0.06694679	มี ความคิดเห็น อะไร	0
-0.1249387	ขอ จำนวน ถูกใจ	0.243038
-0.7067953	เพื่อน ชอบ หนังสือ	0
-0.5307041	เพื่อน ชอบ เพจ	0.4973247
-0.7067953	เรา ชอบ สิ	0
-0.5307041	เรา ชอบ เพจ	0.4973247
-0.0937075	ขอ ดู เพื่อน	0
-0.267507	คน ถูกใจ กี่	0.2003598
-0.811575	คน ถูกใจ เพจ	0
-0.6354837	คน ถูกใจ โพสต์	0
-0.06694679	จำนวน ถูกใจ ของ	0
-0.1249387	ล่าสุด ถูกใจ กี่	1.060698
-0.1249387	ชอบ ที </s>
-0.06694679	<s> ที่ ไหน	-0.6609266
-0.1249387	หนังสือ ที่ เพื่อน	-0.4883168
-0.06694679	อะไร ที่ เพื่อน	-0.6609266
-0.06694679	เช็คอิน ที่ ไหน	-0.04991183
-0.02020339	เพจ ที่ เรา	-0.3742217
-0.3802112	ไหน ที่ เพื่อน	-0.4883168
-0.06694679	อะไร นะ </s>
-0.02020339	อะไร บ้าง </s>
-0.04139268	<s> มี คน	0.196738
-0.4613985	ล่าสุด มี คน	-0.1145395
-0.4613985	ล่าสุด มี ความคิดเห็น	0
-0.1918855	เพจ มี คน	-0.6483601
-0.5898255	เพจ มี โพสต์	0
-0.01523997	คน ละ </s>
-0.6620579	โพสต์ ล่าสุด กี่	0
-1.059998	โพสต์ ล่าสุด คน
-1.059998	โพสต์ ล่าสุด ถูกใจ	0
-0.5159299	โพสต์ ล่าสุด มี	0
-1.059998	โพสต์ ล่าสุด แชร์	0
-0.1249387	ชอบ สิ </s>
-0.1249387	เรา สิ </s>
-0.1249387	ขอ หนังสือ ที่	0
-0.1249387	ชอบ หนังสือ อะไร
-0.1249387	อะไร หรอ </s>
-0.1249387	เฟซ หรอ </s>
-0.02020339	อะไร อะ </s>
-0.1249387	เฟซ อะ </s>
-0.06694679	<s> อะไร ที่	0
-0.3802112	ความคิดเห็น อะไร บ้าง	0.7403627
-0.60206	เพจ อะไร นะ	0.243038
-0.60206	เพจ อะไร หรอ	0
-0.60206	เพจ อะไร อะ	0.7403627
-0.7269987	โพสต์ อะไร </s>
-0.7269987	โพสต์ อะไร บ้าง	0.4973247
-0.7269987	โพสต์ อะไร อะ	0.4973247
-0.06694679	ใช้ อะไร เล่น	0
-0.5698753	เรา เช็คอิน ที่	0.243038
-0.1783831	<s> เพจ มี	0
-0.5463598	<s> เพจ โพสต์	0
-0.02020339	ขอ เพจ ที่	0
-0.3802112	ของ เพจ </s>
-0.02020339	ชอบ เพจ อะไร	0
-0.1249387	ถูกใจ เพจ กี่	0
-0.4366926	<s> เพื่อน ชอบ	-0.4599846
-0.8346326	<s> เพื่อน เช็คอิน
-0.8346326	<s> เพื่อน โพสต์	0
-0.6585413	<s> เพื่อน ใช้	-0.5973135
-0.01523997	ดู เพื่อน ของ	0
-0.6374897	ที่ เพื่อน ชอบ
-0.6374897	ที่ เพื่อน เช็คอิน
-0.4613985	ที่ เพื่อน ใช้	-0.5973135
-0.69897	เล่น เฟซ หรอ	0
-0.69897	เล่น เฟซ อะ	0
-0.60378	<s> เรา ชอบ	-0.6935071
-0.60378	<s> เรา เช็คอิน	-0.09786345
-0.3819312	<s> เรา โพสต์	0
-0.7224511	ของ เรา สิ	0
-0.3364597	ที่ เรา ชอบ	-0.04124424
-0.6374897	ที่ เรา ถูกใจ
-0.06694679	อะไร เล่น เฟซ
-0.06694679	ใช้ เล่น เฟซ
-0.3061696	คน แชร์ กี่	0.359022
-0.4822609	คน แชร์ โพสต์	0
-0.1249387	ล่าสุด แชร์ กี่	0.60206
-0.005532489	<s> โพสต์ ล่าสุด	-0.5511743
-0.06694679	ของ โพสต์ ล่าสุด
-0.06694679	ถูกใจ โพสต์ ล่าสุด	-0.7384481
-0.1249387	มี โพสต์ อะไร
-0.06694679	เพจ โพสต์ อะไร
-0.1249387	เพื่อน โพสต์ อะไร
-0.02802872	เรา โพสต์ อะไร
-0.1249387	แชร์ โพสต์ ล่าสุด	-0.4954101
-0.3617278	เพื่อน ใช้ อะไร	0
-0.3617278	เพื่อน ใช้ เล่น	0
-0.4613985	ที่ ไหน </s>
-0.4613985	ที่ ไหน ที่	0

\4-grams:
-0.01523997	คน ถูกใจ กี่ คน	0.1428276
-0.1249387	ล่าสุด ถูกใจ กี่ คน
-0.02802872	โพสต์ ล่าสุด กี่ คน	0
-0.1249387	ถูกใจ เพจ กี่ คน
-0.06694679	คน แชร์ กี่ คน	0.06186727
-0.1249387	ล่าสุด แชร์ กี่ คน
-0.1249387	ขอ ความคิดเห็น ของ โพสต์	0.243038
-0.06694679	จำนวน ถูกใจ ของ เพจ	0
-0.5898255	ดู เพื่อน ของ เพื่อน
-0.1918855	ดู เพื่อน ของ เรา	0
-0.3132645	ถูกใจ กี่ คน </s>
-0.5351132	ถูกใจ กี่ คน ละ	0.6173
-0.1812309	ล่าสุด กี่ คน </s>
-0.3061696	แชร์ กี่ คน </s>
-0.4822609	แชร์ กี่ คน ละ	0.860338
-0.2498775	<s> มี คน ถูกใจ	-0.1401787
-0.3802112	ล่าสุด มี คน แชร์	-0.3679768
-0.02802872	เพจ มี คน ถูกใจ	-0.8239088
-0.1249387	<s> ขอ ความคิดเห็น ของ	0
-0.06694679	ล่าสุด มี ความคิดเห็น อะไร	0
-0.1249387	<s> ขอ จำนวน ถูกใจ	0
-0.4822609	<s> เพื่อน ชอบ หนังสือ	0
-0.3061696	<s> เพื่อน ชอบ เพจ	0
-0.06694679	<s> เรา ชอบ เพจ	0
-0.5698753	ที่ เรา ชอบ สิ	0
-0.0937075	<s> ขอ ดู เพื่อน	0
-0.1249387	<s> คน ถูกใจ โพสต์	0.243038
-0.2340832	มี คน ถูกใจ กี่	0.1199753
-0.7112045	มี คน ถูกใจ เพจ	0
-0.1249387	ขอ จำนวน ถูกใจ ของ	0.243038
-0.1249387	โพสต์ ล่าสุด ถูกใจ กี่	0
-0.1249387	ขอ หนังสือ ที่ เพื่อน	0
-0.06694679	<s> อะไร ที่ เพื่อน	0
-0.1249387	เรา เช็คอิน ที่ ไหน	-0.3679768
-0.02020339	ขอ เพจ ที่ เรา	0
-0.3802112	ที่ ไหน ที่ เพื่อน	0
-0.1249387	เพจ อะไร นะ </s>
-0.1249387	ความคิดเห็น อะไร บ้าง </s>
-0.06694679	โพสต์ อะไร บ้าง </s>
-0.4613985	โพสต์ ล่าสุด มี คน	0
-0.4613985	โพสต์ ล่าสุด มี ความคิดเห็น	0
-0.1918855	<s> เพจ มี คน	0
-0.5898255	<s> เพจ มี โพสต์	0
-0.01523997	กี่ คน ละ </s>
-0.8346326	<s> โพสต์ ล่าสุด คน
-0.8346326	<s> โพสต์ ล่าสุด ถูกใจ	0
-0.3575113	<s> โพสต์ ล่าสุด มี	-0.3742217
-0.8346326	<s> โพสต์ ล่าสุด แชร์	0
-0.06694679	ถูกใจ โพสต์ ล่าสุด กี่	0.359022
-0.1249387	แชร์ โพสต์ ล่าสุด กี่	0.60206
-0.1249387	เรา ชอบ สิ </s>
-0.1249387	ของ เรา สิ </s>
-0.1249387	<s> ขอ หนังสือ ที่	0
-0.1249387	เพื่อน ชอบ หนังสือ อะไร
-0.1249387	เพจ อะไร หรอ </s>
-0.1249387	เล่น เฟซ หรอ </s>
-0.1249387	เพจ อะไร อะ </s>
-0.06694679	โพสต์ อะไร อะ </s>
-0.1249387	เล่น เฟซ อะ </s>
-0.3802112	มี ความคิดเห็น อะไร บ้าง	0
-0.60206	ชอบ เพจ อะไร นะ	0
-0.60206	ชอบ เพจ อะไร หรอ	0
-0.60206	ชอบ เพจ อะไร อะ	0
-0.06694679	เพื่อน ใช้ อะไร เล่น	0
-0.3802112	<s> เรา เช็คอิน ที่	0
-0.02020339	<s> ขอ เพจ ที่	0
-0.3802112	ถูกใจ ของ เพจ </s>
-0.06694679	เพื่อน ชอบ เพจ อะไร
-0.06694679	เรา ชอบ เพจ อะไร
-0.1249387	คน ถูกใจ เพจ กี่	0
-0.01523997	ขอ ดู เพื่อน ของ	0
-0.1249387	หนังสือ ที่ เพื่อน ชอบ
-0.06694679	อะไร ที่ เพื่อน ใช้	0
-0.1249387	ไหน ที่ เพื่อน เช็คอิน
-0.7224511	เพื่อน ของ เรา สิ	0
-0.2367891	เพจ ที่ เรา ชอบ	0
-0.5378191	เพจ ที่ เรา ถูกใจ
-0.06694679	ใช้ อะไร เล่น เฟซ
-0.06694679	เพื่อน ใช้ เล่น เฟซ
-0.3802112	มี คน แชร์ กี่	0.243038
-0.1249387	โพสต์ ล่าสุด แชร์ กี่	0
-0.06694679	ความคิดเห็น ของ โพสต์ ล่าสุด
-0.06694679	คน ถูกใจ โพสต์ ล่าสุด	0
-0.1249387	เพจ มี โพสต์ อะไร
-0.06694679	<s> เพจ โพสต์ อะไร
-0.1249387	<s> เพื่อน โพสต์ อะไร
-0.02802872	<s> เรา โพสต์ อะไร
-0.1249387	คน แชร์ โพสต์ ล่าสุด	0
-0.06694679	<s> เพื่อน ใช้ อะไร	0
-0.06694679	ที่ เพื่อน ใช้ เล่น	0
-0.06694679	<s> ที่ ไหน ที่	0
-0.3802112	เช็คอิน ที่ ไหน </s>

\5-grams:
-0.02020339	มี คน ถูกใจ กี่ คน
-0.1249387	โพสต์ ล่าสุด ถูกใจ กี่ คน
-0.06694679	ถูกใจ โพสต์ ล่าสุด กี่ คน
-0.1249387	แชร์ โพสต์ ล่าสุด กี่ คน
-0.1249387	คน ถูกใจ เพจ กี่ คน
-0.1249387	มี คน แชร์ กี่ คน
-0.1249387	โพสต์ ล่าสุด แชร์ กี่ คน
-0.1249387	<s> ขอ ความคิดเห็น ของ โพสต์
-0.1249387	ขอ จำนวน ถูกใจ ของ เพจ
-0.5898255	ขอ ดู เพื่อน ของ เพื่อน
-0.1918855	ขอ ดู เพื่อน ของ เรา
-0.3364597	คน ถูกใจ กี่ คน </s>
-0.6374897	คน ถูกใจ กี่ คน ละ
-0.1812309	โพสต์ ล่าสุด กี่ คน </s>
-0.3802112	คน แชร์ กี่ คน </s>
-0.3802112	โพสต์ ล่าสุด มี คน แชร์
-0.02802872	<s> เพจ มี คน ถูกใจ
-0.06694679	โพสต์ ล่าสุด มี ความคิดเห็น อะไร
-0.5698753	เพจ ที่ เรา ชอบ สิ
-0.3802112	<s> มี คน ถูกใจ เพจ
-0.02802872	เพจ มี คน ถูกใจ กี่
-0.1249387	<s> ขอ จำนวน ถูกใจ ของ
-0.1249387	<s> โพสต์ ล่าสุด ถูกใจ กี่
-0.1249387	<s> ขอ หนังสือ ที่ เพื่อน
-0.1249387	<s> เรา เช็คอิน ที่ ไหน
-0.02020339	<s> ขอ เพจ ที่ เรา
-0.3802112	<s> ที่ ไหน ที่ เพื่อน
-0.1249387	ชอบ เพจ อะไร นะ </s>
-0.1249387	มี ความคิดเห็น อะไร บ้าง </s>
-0.3617278	<s> โพสต์ ล่าสุด มี คน
-0.3617278	<s> โพสต์ ล่าสุด มี ความคิดเห็น
-0.06694679	ถูกใจ กี่ คน ละ </s>
-0.1249387	แชร์ กี่ คน ละ </s>
-0.06694679	คน ถูกใจ โพสต์ ล่าสุด กี่
-0.1249387	คน แชร์ โพสต์ ล่าสุด กี่
-0.1249387	ที่ เรา ชอบ สิ </s>
-0.1249387	เพื่อน ของ เรา สิ </s>
-0.1249387	<s> เพื่อน ชอบ หนังสือ อะไร
-0.1249387	ชอบ เพจ อะไร หรอ </s>
-0.1249387	ชอบ เพจ อะไร อะ </s>
-0.3802112	ล่าสุด มี ความคิดเห็น อะไร บ้าง
-0.06694679	<s> เพื่อน ใช้ อะไร เล่น
-0.3802112	จำนวน ถูกใจ ของ เพจ </s>
-0.06694679	<s> เพื่อน ชอบ เพจ อะไร
-0.06694679	<s> เรา ชอบ เพจ อะไร
-0.1249387	มี คน ถูกใจ เพจ กี่
-0.01523997	<s> ขอ ดู เพื่อน ของ
-0.1249387	ขอ หนังสือ ที่ เพื่อน ชอบ
-0.06694679	<s> อะไร ที่ เพื่อน ใช้
-0.1249387	ที่ ไหน ที่ เพื่อน เช็คอิน
-0.7224511	ดู เพื่อน ของ เรา สิ
-0.2367891	ขอ เพจ ที่ เรา ชอบ
-0.5378191	ขอ เพจ ที่ เรา ถูกใจ
-0.06694679	เพื่อน ใช้ อะไร เล่น เฟซ
-0.06694679	ที่ เพื่อน ใช้ เล่น เฟซ
-0.1249387	ล่าสุด มี คน แชร์ กี่
-0.1249387	<s> โพสต์ ล่าสุด แชร์ กี่
-0.1249387	ขอ ความคิดเห็น ของ โพสต์ ล่าสุด
-0.1249387	<s> คน ถูกใจ โพสต์ ล่าสุด
-0.1249387	<s> เพจ มี โพสต์ อะไร
-0.06694679	อะไร ที่ เพื่อน ใช้ เล่น
-0.1249387	เรา เช็คอิน ที่ ไหน </s>

\end\
