
\data\
ngram 1=35
ngram 2=120
ngram 3=108
ngram 4=90

\1-grams:
-0.8487323	</s>
-99	<s>	-1.561571
-1.477121	กี่	-2.350765
-2.079181	ขอ	-1.185731
-1.60206	ของ	-0.8941776
-1.477121	คน	-1.576508
-1.60206	ความคิดเห็น	-0.846818
-1.778151	จำนวน	-0.8303748
-1.778151	ชอบ	-0.5630005
-2.079181	ดู	-1.1727
-1.477121	ถูกใจ	-0.8450981
-1.380211	ที	-1.276079
-1.234083	ที่	-1.5923
-1.778151	นะ	-0.9750487
-1.778151	บ้าง	-1.396054
-1.60206	มี	-1.155083
-2.079181	ละ	-1.396054
-1.60206	ล่าสุด	-0.5247567
-1.60206	สิ	-1.137776
-1.778151	หนังสือ	-0.5481846
-1.380211	หน่อย	-1.276079
-1.778151	หรอ	-0.9750487
-1.380211	อะ	-1.681844
-1.234083	อะไร	-0.8126165
-1.778151	เช็คอิน	-0.2920098
-1.380211	เพจ	-0.9103798
-1.477121	เพื่อน	-0.9357591
-2.079181	เฟซ	-0.2918866
-1.477121	เรา	-0.7561924
-1.778151	เล่น	-1.338788
-1.778151	แชร์	-0.9542425
-1.176091	โพสต์	-2.209365
-2.079181	ใช้	-0.8507484
-2.079181	ไป	-0.2937307
-1.778151	ไหน	-0.6927735

\2-grams:
-0.5680798	<s> ขอ	0
-1.433381	<s> คน	-0.07328473
-1.910502	<s> ความคิดเห็น
-1.433381	<s> ที่	-0.6834909
-1.308442	<s> มี	-0.611268
-1.433381	<s> อะไร	-0.8027227
-0.9105025	<s> เพจ	-1.096032
-0.8691098	<s> เพื่อน	-0.4610939
-0.8691098	<s> เรา	-0.6556575
-0.8313212	<s> โพสต์	-1.475736
-0.001876005	กี่ คน	-0.8275167
-1.067406	ขอ ความคิดเห็น	-0.3542755
-1.067406	ขอ จำนวน	0.243038
-0.4141936	ขอ ดู	0
-1.067406	ขอ หนังสือ	-0.39794
-0.5233381	ขอ เพจ	-1.342981
-0.6851268	ของ เพจ	-0.2031789
-0.861218	ของ เพื่อน
-0.463278	ของ เรา	-0.05908431
-0.6851268	ของ โพสต์	-0.4232072
-0.4746617	คน </s>
-0.5094238	คน ถูกใจ	-0.6644936
-0.743507	คน ละ	0
-1.588605	คน อะ
-0.889635	คน แชร์	0.2466723
-0.3617278	ความคิดเห็น ของ	-0.7446572
-0.3617278	ความคิดเห็น อะไร	-0.1447464
-0.06694679	จำนวน ถูกใจ	-0.7791026
-0.9361785	ชอบ </s>
-0.9361785	ชอบ ที	0.7403627
-0.9361785	ชอบ สิ	0.60206
-0.9361785	ชอบ หนังสือ	-0.39794
-1.237208	ชอบ หน่อย
-0.5382385	ชอบ เพจ	-1.122299
-0.9828877	ดู จำนวน
-0.07979771	ดู เพื่อน	-0.5994921
-0.3737291	ถูกใจ กี่	0.7027302
-0.8508503	ถูกใจ ของ	-0.7446572
-1.327972	ถูกใจ ที
-1.327972	ถูกใจ หน่อย
-1.026942	ถูกใจ เพจ	-0.5711557
-0.8508503	ถูกใจ โพสต์	-0.4232072
-0.02020339	ที </s>
-0.5076246	ที่ เพื่อน	-0.3928753
-0.4496326	ที่ เรา	-0.3940447
-0.5076246	ที่ ไหน	0.07528466
-0.04139268	นะ </s>
-0.01523997	บ้าง </s>
-0.2016454	มี คน	-1.175417
-0.8037053	มี ความคิดเห็น	-0.5973135
-1.280827	มี อะไร
-0.9797966	มี โพสต์	-0.3994125
-0.01523997	ละ </s>
-1.424264	ล่าสุด </s>
-0.7252942	ล่าสุด กี่	1.161368
-1.123234	ล่าสุด คน
-1.123234	ล่าสุด ถูกใจ	-0.3632868
-1.424264	ล่าสุด ที
-1.424264	ล่าสุด ที่
-0.5791662	ล่าสุด มี	0.1586219
-1.424264	ล่าสุด หน่อย
-1.123234	ล่าสุด แชร์	-0.154902
-0.02802872	สิ </s>
-0.4259687	หนังสือ ที่	-0.4404529
-0.4259687	หนังสือ อะไร
-0.02020339	หน่อย </s>
-0.04139268	หรอ </s>
-0.007825337	อะ </s>
-0.8098381	อะไร </s>
-1.031687	อะไร ที่	-0.6834909
-1.031687	อะไร นะ	0.1962947
-0.7306568	อะไร บ้าง	0.1199753
-1.508808	อะไร ล่าสุด
-1.207778	อะไร หรอ	0.4393327
-0.8098381	อะไร อะ	0.544068
-1.031687	อะไร เล่น	0.4973247
-1.508808	อะไร ไป
-0.7998705	เช็คอิน </s>
-0.6237792	เช็คอิน ที่	-0.6834909
-1.100901	เช็คอิน ล่าสุด
-1.100901	เช็คอิน อะ
-1.100901	เช็คอิน ไหน
-1.163126	เพจ </s>
-1.163126	เพจ กี่	1.763428
-0.6190583	เพจ ที่	-1.271881
-0.6190583	เพจ มี	-0.4259687
-1.464156	เพจ สิ
-0.7651863	เพจ อะไร	-0.257881
-0.987035	เพจ โพสต์	-0.6424505
-0.6415685	เพื่อน ของ	-0.714513
-0.7085153	เพื่อน ชอบ	0.003930286
-1.486667	เพื่อน ที
-1.486667	เพื่อน หน่อย
-0.8846066	เพื่อน เช็คอิน
-1.486667	เพื่อน เรา
-1.185637	เพื่อน โพสต์	-0.3994125
-0.7085153	เพื่อน ใช้	0
-1	เฟซ </s>
-1	เฟซ นะ
-0.69897	เฟซ หรอ	0.4393327
-0.69897	เฟซ อะ	1.146128
-1.447628	เรา </s>
-0.5445378	เรา ชอบ	0.006570369
-1.146598	เรา ถูกใจ
-1.447628	เรา ที
-1.146598	เรา สิ	0.60206
-1.146598	เรา หน่อย	0.7403627
-0.8455678	เรา เช็คอิน	-0.01828592
-0.7486578	เรา โพสต์	-1.001472
-0.02020339	เล่น เฟซ	0
-0.1918855	แชร์ กี่	1.161368
-0.5898255	แชร์ โพสต์	-0.1801692
-0.2065852	โพสต์ ล่าสุด	-0.1736086
-0.428434	โพสต์ อะไร	-0.06161946
-0.3617278	ใช้ อะไร	-0.8027227
-0.3617278	ใช้ เล่น	0.4973247
-0.30103	ไป บ้าง
-0.3735807	ไหน </s>
-0.4985194	ไหน ที่	-0.0724761
-0.9756407	ไหน อะ

\3-grams:
-0.009545318	ถูกใจ กี่ คน	0.4892194
-0.02802872	ล่าสุด กี่ คน	-0.06562039
-0.1249387	เพจ กี่ คน
-0.02802872	แชร์ กี่ คน	0.3891041
-1.067406	<s> ขอ ความคิดเห็น	0
-1.067406	<s> ขอ จำนวน	0
-0.4141936	<s> ขอ ดู	0
-1.067406	<s> ขอ หนังสือ	0
-0.5233381	<s> ขอ เพจ	0
-0.06694679	ความคิดเห็น ของ โพสต์	0
-0.06694679	ถูกใจ ของ เพจ	0
-0.5898255	เพื่อน ของ เพื่อน
-0.1918855	เพื่อน ของ เรา	0
-0.3802112	<s> คน ถูกใจ	-0.4877144
-0.219557	กี่ คน </s>
-0.4884023	กี่ คน ละ	0
-0.141538	มี คน ถูกใจ	-0.1383027
-0.6186593	มี คน แชร์	0.06186727
-0.1249387	ขอ ความคิดเห็น ของ	0.243038
-0.06694679	มี ความคิดเห็น อะไร	0
-0.1249387	ขอ จำนวน ถูกใจ	0.243038
-0.69897	เพื่อน ชอบ หนังสือ	0
-0.69897	เพื่อน ชอบ เพจ	0.60206
-0.7998705	เรา ชอบ สิ	0
-0.6237792	เรา ชอบ เพจ	0.359022
-0.07979771	ขอ ดู เพื่อน	0
-0.267507	คน ถูกใจ กี่	0.2003598
-0.811575	คน ถูกใจ เพจ	0
-0.6354837	คน ถูกใจ โพสต์	0
-0.06694679	จำนวน ถูกใจ ของ	0
-0.1249387	ล่าสุด ถูกใจ กี่	1.060698
-0.1249387	ชอบ ที </s>
-0.06694679	<s> ที่ ไหน	-0.6609266
-0.1249387	หนังสือ ที่ เพื่อน	-0.4883168
-0.06694679	อะไร ที่ เพื่อน	-0.6609266
-0.06694679	เช็คอิน ที่ ไหน	-0.04991183
-0.01523997	เพจ ที่ เรา	-0.4143305
-0.3802112	ไหน ที่ เพื่อน	-0.4883168
-0.06694679	อะไร นะ </s>
-0.02020339	อะไร บ้าง </s>
-0.04139268	<s> มี คน	0.196738
-0.4613985	ล่าสุด มี คน	-0.1145395
-0.4613985	ล่าสุด มี ความคิดเห็น	0
-0.1918855	เพจ มี คน	-0.6483601
-0.5898255	เพจ มี โพสต์	0
-0.01523997	คน ละ </s>
-0.6620579	โพสต์ ล่าสุด กี่	0
-1.059998	โพสต์ ล่าสุด คน
-1.059998	โพสต์ ล่าสุด ถูกใจ	0
-0.5159299	โพสต์ ล่าสุด มี	0
-1.059998	โพสต์ ล่าสุด แชร์	0
-0.1249387	ชอบ สิ </s>
-0.1249387	เรา สิ </s>
-0.1249387	ขอ หนังสือ ที่	0
-0.1249387	ชอบ หนังสือ อะไร
-0.1249387	เรา หน่อย </s>
-0.1249387	อะไร หรอ </s>
-0.1249387	เฟซ หรอ </s>
-0.02802872	อะไร อะ </s>
-0.1249387	เฟซ อะ </s>
-0.06694679	<s> อะไร ที่	0
-0.3802112	ความคิดเห็น อะไร บ้าง	0.7403627
-0.5740313	เพจ อะไร นะ	0.243038
-0.5740313	เพจ อะไร หรอ	0
-0.7269987	โพสต์ อะไร </s>
-0.7269987	โพสต์ อะไร บ้าง	0.4973247
-0.7269987	โพสต์ อะไร อะ	0.359022
-0.06694679	ใช้ อะไร เล่น	0
-0.5698753	เรา เช็คอิน ที่	0.243038
-0.1783831	<s> เพจ มี	0
-0.5463598	<s> เพจ โพสต์	0
-0.01523997	ขอ เพจ ที่	0
-0.3802112	ของ เพจ </s>
-0.02802872	ชอบ เพจ อะไร	0
-0.1249387	ถูกใจ เพจ กี่	0
-0.5062795	<s> เพื่อน ชอบ	-0.3802112
-0.8073095	<s> เพื่อน เช็คอิน
-0.8073095	<s> เพื่อน โพสต์	0
-0.6312182	<s> เพื่อน ใช้	-0.5973135
-0.0937075	ดู เพื่อน ของ	0
-0.6374897	ที่ เพื่อน ชอบ
-0.6374897	ที่ เพื่อน เช็คอิน
-0.4613985	ที่ เพื่อน ใช้	-0.5973135
-0.69897	เล่น เฟซ หรอ	0
-0.69897	เล่น เฟซ อะ	0
-0.60378	<s> เรา ชอบ	-0.7271641
-0.60378	<s> เรา เช็คอิน	-0.09786345
-0.3819312	<s> เรา โพสต์	0
-0.7224511	ของ เรา สิ	0
-0.2766707	ที่ เรา ชอบ	-0.01626812
-0.6746107	ที่ เรา ถูกใจ
-0.06694679	อะไร เล่น เฟซ
-0.06694679	ใช้ เล่น เฟซ
-0.3061696	คน แชร์ กี่	0.359022
-0.4822609	คน แชร์ โพสต์	0
-0.1249387	ล่าสุด แชร์ กี่	0.60206
-0.005532489	<s> โพสต์ ล่าสุด	-0.5511743
-0.06694679	ของ โพสต์ ล่าสุด
-0.06694679	ถูกใจ โพสต์ ล่าสุด	-0.7384481
-0.1249387	มี โพสต์ อะไร
-0.06694679	เพจ โพสต์ อะไร
-0.1249387	เพื่อน โพสต์ อะไร
-0.02802872	เรา โพสต์ อะไร
-0.1249387	แชร์ โพสต์ ล่าสุด	-0.4954101
-0.3617278	เพื่อน ใช้ อะไร	0
-0.3617278	เพื่อน ใช้ เล่น	0
-0.4613985	ที่ ไหน </s>
-0.4613985	ที่ ไหน ที่	0

\4-grams:
-0.01523997	คน ถูกใจ กี่ คน
-0.1249387	ล่าสุด ถูกใจ กี่ คน
-0.02802872	โพสต์ ล่าสุด กี่ คน
-0.1249387	ถูกใจ เพจ กี่ คน
-0.06694679	คน แชร์ กี่ คน
-0.1249387	ล่าสุด แชร์ กี่ คน
-0.1249387	ขอ ความคิดเห็น ของ โพสต์
-0.06694679	จำนวน ถูกใจ ของ เพจ
-0.5898255	ดู เพื่อน ของ เพื่อน
-0.1918855	ดู เพื่อน ของ เรา
-0.3132645	ถูกใจ กี่ คน </s>
-0.5351132	ถูกใจ กี่ คน ละ
-0.1812309	ล่าสุด กี่ คน </s>
-0.3061696	แชร์ กี่ คน </s>
-0.4822609	แชร์ กี่ คน ละ
-0.2498775	<s> มี คน ถูกใจ
-0.3802112	ล่าสุด มี คน แชร์
-0.02802872	เพจ มี คน ถูกใจ
-0.1249387	<s> ขอ ความคิดเห็น ของ
-0.06694679	ล่าสุด มี ความคิดเห็น อะไร
-0.1249387	<s> ขอ จำนวน ถูกใจ
-0.4259687	<s> เพื่อน ชอบ หนังสือ
-0.4259687	<s> เพื่อน ชอบ เพจ
-0.06694679	<s> เรา ชอบ เพจ
-0.7224511	ที่ เรา ชอบ สิ
-0.07979771	<s> ขอ ดู เพื่อน
-0.1249387	<s> คน ถูกใจ โพสต์
-0.2340832	มี คน ถูกใจ กี่
-0.7112045	มี คน ถูกใจ เพจ
-0.1249387	ขอ จำนวน ถูกใจ ของ
-0.1249387	โพสต์ ล่าสุด ถูกใจ กี่
-0.1249387	ขอ หนังสือ ที่ เพื่อน
-0.06694679	<s> อะไร ที่ เพื่อน
-0.1249387	เรา เช็คอิน ที่ ไหน
-0.01523997	ขอ เพจ ที่ เรา
-0.3802112	ที่ ไหน ที่ เพื่อน
-0.1249387	เพจ อะไร นะ </s>
-0.1249387	ความคิดเห็น อะไร บ้าง </s>
-0.06694679	โพสต์ อะไร บ้าง </s>
-0.4613985	โพสต์ ล่าสุด มี คน
-0.4613985	โพสต์ ล่าสุด มี ความคิดเห็น
-0.1918855	<s> เพจ มี คน
-0.5898255	<s> เพจ มี โพสต์
-0.01523997	กี่ คน ละ </s>
-0.8346326	<s> โพสต์ ล่าสุด คน
-0.8346326	<s> โพสต์ ล่าสุด ถูกใจ
-0.3575113	<s> โพสต์ ล่าสุด มี
-0.8346326	<s> โพสต์ ล่าสุด แชร์
-0.06694679	ถูกใจ โพสต์ ล่าสุด กี่
-0.1249387	แชร์ โพสต์ ล่าสุด กี่
-0.1249387	เรา ชอบ สิ </s>
-0.1249387	ของ เรา สิ </s>
-0.1249387	<s> ขอ หนังสือ ที่
-0.1249387	เพื่อน ชอบ หนังสือ อะไร
-0.1249387	เพจ อะไร หรอ </s>
-0.1249387	เล่น เฟซ หรอ </s>
-0.06694679	โพสต์ อะไร อะ </s>
-0.1249387	เล่น เฟซ อะ </s>
-0.3802112	มี ความคิดเห็น อะไร บ้าง
-0.5740313	ชอบ เพจ อะไร นะ
-0.5740313	ชอบ เพจ อะไร หรอ
-0.06694679	เพื่อน ใช้ อะไร เล่น
-0.3802112	<s> เรา เช็คอิน ที่
-0.01523997	<s> ขอ เพจ ที่
-0.3802112	ถูกใจ ของ เพจ </s>
-0.1249387	เพื่อน ชอบ เพจ อะไร
-0.06694679	เรา ชอบ เพจ อะไร
-0.1249387	คน ถูกใจ เพจ กี่
-0.0937075	ขอ ดู เพื่อน ของ
-0.1249387	หนังสือ ที่ เพื่อน ชอบ
-0.06694679	อะไร ที่ เพื่อน ใช้
-0.1249387	ไหน ที่ เพื่อน เช็คอิน
-0.7224511	เพื่อน ของ เรา สิ
-0.1918855	เพจ ที่ เรา ชอบ
-0.5898255	เพจ ที่ เรา ถูกใจ
-0.06694679	ใช้ อะไร เล่น เฟซ
-0.06694679	เพื่อน ใช้ เล่น เฟซ
-0.3802112	มี คน แชร์ กี่
-0.1249387	โพสต์ ล่าสุด แชร์ กี่
-0.06694679	ความคิดเห็น ของ โพสต์ ล่าสุด
-0.06694679	คน ถูกใจ โพสต์ ล่าสุด
-0.1249387	เพจ มี โพสต์ อะไร
-0.06694679	<s> เพจ โพสต์ อะไร
-0.1249387	<s> เพื่อน โพสต์ อะไร
-0.02802872	<s> เรา โพสต์ อะไร
-0.1249387	คน แชร์ โพสต์ ล่าสุด
-0.06694679	<s> เพื่อน ใช้ อะไร
-0.06694679	ที่ เพื่อน ใช้ เล่น
-0.06694679	<s> ที่ ไหน ที่
-0.3802112	เช็คอิน ที่ ไหน </s>

\end\
